<?xml version="1.0"?>
<MethodSetup Method="BDT::bdt">
  <GeneralInfo>
    <Info name="TMVA Release" value="4.2.1 [262657]"/>
    <Info name="ROOT Release" value="6.08/06 [395270]"/>
    <Info name="Creator" value="yonamine"/>
    <Info name="Date" value="Mon Jul  2 18:24:50 2018"/>
    <Info name="Host" value="Linux grid-cvmfs-ilc.desy.de 2.6.32-696.el6.aufs21.x86_64 #1 SMP Tue Apr 18 17:28:49 CEST 2017 x86_64 x86_64 x86_64 GNU/Linux"/>
    <Info name="Dir" value="/gpfs/group/ilc/users/yonamine/LCFIPlusDev/run/Training_s5_500GeV_wobkg_v02-00-01_default"/>
    <Info name="Training events" value="69055"/>
    <Info name="TrainingTime" value="2.90910758e+02"/>
    <Info name="AnalysisType" value="Multiclass"/>
  </GeneralInfo>
  <Options>
    <Option name="V" modified="Yes">False</Option>
    <Option name="VerbosityLevel" modified="No">Default</Option>
    <Option name="VarTransform" modified="No">None</Option>
    <Option name="H" modified="Yes">False</Option>
    <Option name="CreateMVAPdfs" modified="No">False</Option>
    <Option name="IgnoreNegWeightsInTraining" modified="No">False</Option>
    <Option name="NTrees" modified="Yes">1000</Option>
    <Option name="MaxDepth" modified="No">2</Option>
    <Option name="MinNodeSize" modified="No">5%</Option>
    <Option name="nCuts" modified="Yes">20</Option>
    <Option name="BoostType" modified="Yes">Grad</Option>
    <Option name="AdaBoostR2Loss" modified="No">quadratic</Option>
    <Option name="UseBaggedBoost" modified="No">True</Option>
    <Option name="Shrinkage" modified="Yes">1.000000e-01</Option>
    <Option name="AdaBoostBeta" modified="No">5.000000e-01</Option>
    <Option name="UseRandomisedTrees" modified="No">False</Option>
    <Option name="UseNvars" modified="No">5</Option>
    <Option name="UsePoissonNvars" modified="No">True</Option>
    <Option name="BaggedSampleFraction" modified="No">5.000000e-01</Option>
    <Option name="UseYesNoLeaf" modified="No">True</Option>
    <Option name="NegWeightTreatment" modified="No">pray</Option>
    <Option name="Css" modified="No">1.000000e+00</Option>
    <Option name="Cts_sb" modified="No">1.000000e+00</Option>
    <Option name="Ctb_ss" modified="No">1.000000e+00</Option>
    <Option name="Cbb" modified="No">1.000000e+00</Option>
    <Option name="NodePurityLimit" modified="No">5.000000e-01</Option>
    <Option name="SeparationType" modified="No">giniindex</Option>
    <Option name="RegressionLossFunctionBDTG" modified="No">huber</Option>
    <Option name="HuberQuantile" modified="No">7.000000e-01</Option>
    <Option name="DoBoostMonitor" modified="No">False</Option>
    <Option name="UseFisherCuts" modified="No">False</Option>
    <Option name="MinLinCorrForFisher" modified="No">8.000000e-01</Option>
    <Option name="UseExclusiveVars" modified="No">False</Option>
    <Option name="DoPreselection" modified="No">False</Option>
    <Option name="SigToBkgFraction" modified="No">1.000000e+00</Option>
    <Option name="PruneMethod" modified="No">nopruning</Option>
    <Option name="PruneStrength" modified="No">0.000000e+00</Option>
    <Option name="PruningValFraction" modified="No">5.000000e-01</Option>
    <Option name="SkipNormalization" modified="Yes">True</Option>
    <Option name="nEventsMin" modified="No">0</Option>
    <Option name="UseBaggedGrad" modified="Yes">True</Option>
    <Option name="GradBaggingFraction" modified="Yes">5.000000e-01</Option>
    <Option name="UseNTrainEvents" modified="No">0</Option>
    <Option name="NNodesMax" modified="Yes">8</Option>
  </Options>
  <Variables NVar="29">
    <Variable VarIndex="0" Expression="trk1d0sig" Label="trk1d0sig" Title="trk1d0sig" Unit="" Internal="trk1d0sig" Type="F" Min="-5.86484492e-01" Max="1.66349062e+05"/>
    <Variable VarIndex="1" Expression="trk2d0sig" Label="trk2d0sig" Title="trk2d0sig" Unit="" Internal="trk2d0sig" Type="F" Min="-1.80491028e+01" Max="1.58954443e+04"/>
    <Variable VarIndex="2" Expression="trk1z0sig" Label="trk1z0sig" Title="trk1z0sig" Unit="" Internal="trk1z0sig" Type="F" Min="-1.52061219e+05" Max="1.77356594e+05"/>
    <Variable VarIndex="3" Expression="trk2z0sig" Label="trk2z0sig" Title="trk2z0sig" Unit="" Internal="trk2z0sig" Type="F" Min="-1.02348195e+05" Max="6.77424219e+04"/>
    <Variable VarIndex="4" Expression="trk1pt_jete" Label="trk1pt_jete" Title="trk1pt_jete" Unit="" Internal="trk1pt_jete" Type="F" Min="2.51416583e-04" Max="6.83016717e-01"/>
    <Variable VarIndex="5" Expression="trk2pt_jete" Label="trk2pt_jete" Title="trk2pt_jete" Unit="" Internal="trk2pt_jete" Type="F" Min="2.86566385e-04" Max="7.27665424e-01"/>
    <Variable VarIndex="6" Expression="jprobr2" Label="jprobr2" Title="jprobr2" Unit="" Internal="jprobr2" Type="F" Min="0.00000000e+00" Max="9.89954948e-01"/>
    <Variable VarIndex="7" Expression="jprobz2" Label="jprobz2" Title="jprobz2" Unit="" Internal="jprobz2" Type="F" Min="0.00000000e+00" Max="9.99922872e-01"/>
    <Variable VarIndex="8" Expression="vtxlen1_jete" Label="vtxlen1_jete" Title="vtxlen1_jete" Unit="" Internal="vtxlen1_jete" Type="F" Min="5.71738128e-05" Max="2.59357333e+00"/>
    <Variable VarIndex="9" Expression="vtxsig1_jete" Label="vtxsig1_jete" Title="vtxsig1_jete" Unit="" Internal="vtxsig1_jete" Type="F" Min="0.00000000e+00" Max="1.13160324e+02"/>
    <Variable VarIndex="10" Expression="vtxdirang1_jete" Label="vtxdirang1_jete" Title="vtxdirang1_jete" Unit="" Internal="vtxdirang1_jete" Type="F" Min="0.00000000e+00" Max="6.74385864e+02"/>
    <Variable VarIndex="11" Expression="vtxmom1_jete" Label="vtxmom1_jete" Title="vtxmom1_jete" Unit="" Internal="vtxmom1_jete" Type="F" Min="5.28878951e-03" Max="8.66612971e-01"/>
    <Variable VarIndex="12" Expression="vtxmass1" Label="vtxmass1" Title="vtxmass1" Unit="" Internal="vtxmass1" Type="F" Min="2.21423674e-02" Max="6.21439438e+01"/>
    <Variable VarIndex="13" Expression="vtxmult1" Label="vtxmult1" Title="vtxmult1" Unit="" Internal="vtxmult1" Type="F" Min="2.00000000e+00" Max="2.10000000e+01"/>
    <Variable VarIndex="14" Expression="vtxmasspc" Label="vtxmasspc" Title="vtxmasspc" Unit="" Internal="vtxmasspc" Type="F" Min="7.29449689e-01" Max="2.39124893e+02"/>
    <Variable VarIndex="15" Expression="vtxprob" Label="vtxprob" Title="vtxprob" Unit="" Internal="vtxprob" Type="F" Min="0.00000000e+00" Max="9.99998331e-01"/>
    <Variable VarIndex="16" Expression="vtxlen2_jete" Label="vtxlen2_jete" Title="vtxlen2_jete" Unit="" Internal="vtxlen2_jete" Type="F" Min="4.00482008e-04" Max="2.62969685e+00"/>
    <Variable VarIndex="17" Expression="vtxsig2_jete" Label="vtxsig2_jete" Title="vtxsig2_jete" Unit="" Internal="vtxsig2_jete" Type="F" Min="0.00000000e+00" Max="1.29432861e+02"/>
    <Variable VarIndex="18" Expression="vtxdirang2_jete" Label="vtxdirang2_jete" Title="vtxdirang2_jete" Unit="" Internal="vtxdirang2_jete" Type="F" Min="0.00000000e+00" Max="6.83183777e+02"/>
    <Variable VarIndex="19" Expression="vtxmom2_jete" Label="vtxmom2_jete" Title="vtxmom2_jete" Unit="" Internal="vtxmom2_jete" Type="F" Min="5.37032913e-03" Max="8.77232134e-01"/>
    <Variable VarIndex="20" Expression="vtxmass2" Label="vtxmass2" Title="vtxmass2" Unit="" Internal="vtxmass2" Type="F" Min="4.12793597e-03" Max="2.67026272e+01"/>
    <Variable VarIndex="21" Expression="vtxmult2" Label="vtxmult2" Title="vtxmult2" Unit="" Internal="vtxmult2" Type="F" Min="2.00000000e+00" Max="1.20000000e+01"/>
    <Variable VarIndex="22" Expression="vtxlen12_jete" Label="vtxlen12_jete" Title="vtxlen12_jete" Unit="" Internal="vtxlen12_jete" Type="F" Min="1.22656216e-04" Max="9.99919698e-02"/>
    <Variable VarIndex="23" Expression="vtxsig12_jete" Label="vtxsig12_jete" Title="vtxsig12_jete" Unit="" Internal="vtxsig12_jete" Type="F" Min="0.00000000e+00" Max="6.11039314e+01"/>
    <Variable VarIndex="24" Expression="vtxdirang12_jete" Label="vtxdirang12_jete" Title="vtxdirang12_jete" Unit="" Internal="vtxdirang12_jete" Type="F" Min="0.00000000e+00" Max="6.89624512e+02"/>
    <Variable VarIndex="25" Expression="vtxmom_jete" Label="vtxmom_jete" Title="vtxmom_jete" Unit="" Internal="vtxmom_jete" Type="F" Min="1.97204798e-02" Max="9.90634084e-01"/>
    <Variable VarIndex="26" Expression="vtxmass" Label="vtxmass" Title="vtxmass" Unit="" Internal="vtxmass" Type="F" Min="5.35382330e-01" Max="1.27558823e+02"/>
    <Variable VarIndex="27" Expression="vtxmult" Label="vtxmult" Title="vtxmult" Unit="" Internal="vtxmult" Type="F" Min="4.00000000e+00" Max="3.10000000e+01"/>
    <Variable VarIndex="28" Expression="1vtxprob" Label="1vtxprob" Title="1vtxprob" Unit="" Internal="1vtxprob" Type="F" Min="0.00000000e+00" Max="9.94009897e-04"/>
  </Variables>
  <Spectators NSpec="2">
    <Spectator SpecIndex="0" Expression="aux" Label="aux" Title="aux" Unit="" Internal="aux" Type="F" Min="-1.00000000e+00" Max="-1.00000000e+00"/>
    <Spectator SpecIndex="1" Expression="nvtx" Label="nvtx" Title="nvtx" Unit="" Internal="nvtx" Type="F" Min="2.00000000e+00" Max="2.00000000e+00"/>
  </Spectators>
  <Classes NClass="3">
    <Class Name="jetB" Index="0"/>
    <Class Name="jetC" Index="1"/>
    <Class Name="jetO" Index="2"/>
  </Classes>
  <Transformations NTransformations="0"/>
  <MVAPdfs/>
  <Weights NTrees="3000" AnalysisType="1">
    <BinaryTree type="DecisionTree" boostWeight="1.0000000000000000e+00" itree="0">
      <Node pos="s" depth="0" NCoef="0" IVar="24" Cut="2.2469251632690430e+01" cType="1" res="6.3815069198608398e-01" rms="1.6644172370433807e-01" purity="9.7148400545120239e-01" nType="0">
        <Node pos="l" depth="1" NCoef="0" IVar="24" Cut="6.4170355796813965e+00" cType="1" res="6.4549630880355835e-01" rms="1.4395205676555634e-01" purity="9.7882962226867676e-01" nType="0">
          <Node pos="l" depth="2" NCoef="0" IVar="-1" Cut="0.0000000000000000e+00" cType="1" res="9.8260574042797089e-02" rms="1.0705948621034622e-01" purity="9.8840379714965820e-01" nType="-99"/>
          <Node pos="r" depth="2" NCoef="0" IVar="-1" Cut="0.0000000000000000e+00" cType="1" res="8.8830441236495972e-02" rms="2.6252415776252747e-01" purity="9.2553621530532837e-01" nType="-99"/>
        </Node>
        <Node pos="r" depth="1" NCoef="0" IVar="-1" Cut="0.0000000000000000e+00" cType="1" res="7.8622676432132721e-02" rms="3.4957814216613770e-01" purity="8.5748445987701416e-01" nType="-99"/>
      </Node>
    </BinaryTree>
    <BinaryTree type="DecisionTree" boostWeight="1.0000000000000000e+00" itree="1">
      <Node pos="s" depth="0" NCoef="0" IVar="26" Cut="4.0293669700622559e+00" cType="1" res="6.3847941160202026e-01" rms="1.6550752520561218e-01" purity="1.9837614148855209e-02" nType="0">
        <Node pos="l" depth="1" NCoef="0" IVar="25" Cut="2.5705087184906006e-01" cType="1" res="6.4579671621322632e-01" rms="1.4294901490211487e-01" purity="1.3563794083893299e-02" nType="0">
          <Node pos="l" depth="2" NCoef="0" IVar="-1" Cut="0.0000000000000000e+00" cType="1" res="-4.3632075190544128e-02" rms="2.5242462754249573e-01" purity="4.2452830821275711e-02" nType="-99"/>
          <Node pos="r" depth="2" NCoef="0" IVar="-1" Cut="0.0000000000000000e+00" cType="1" res="-4.8607658594846725e-02" rms="1.1676964908838272e-01" purity="9.2822741717100143e-03" nType="-99"/>
        </Node>
        <Node pos="r" depth="1" NCoef="0" IVar="8" Cut="2.3815007880330086e-02" cType="1" res="5.9662026166915894e-01" rms="2.5522527098655701e-01" purity="5.5727552622556686e-02" nType="0">
          <Node pos="l" depth="2" NCoef="0" IVar="-1" Cut="0.0000000000000000e+00" cType="1" res="-3.1879700720310211e-02" rms="3.5145533084869385e-01" purity="1.2080200761556625e-01" nType="-99"/>
          <Node pos="r" depth="2" NCoef="0" IVar="-1" Cut="0.0000000000000000e+00" cType="1" res="-4.7778129577636719e-02" rms="1.5092340111732483e-01" purity="1.4812480658292770e-02" nType="-99"/>
        </Node>
      </Node>
    </BinaryTree>
    <BinaryTree type="DecisionTree" boostWeight="1.0000000000000000e+00" itree="2">
      <Node pos="s" depth="0" NCoef="0" IVar="24" Cut="2.2468404769897461e+01" cType="1" res="6.3976126909255981e-01" rms="1.6180710494518280e-01" purity="7.4977651238441467e-03" nType="0">
        <Node pos="l" depth="1" NCoef="0" IVar="24" Cut="6.4018750190734863e+00" cType="1" res="6.4629602432250977e-01" rms="1.4126461744308472e-01" purity="6.0039823874831200e-03" nType="0">
          <Node pos="l" depth="2" NCoef="0" IVar="-1" Cut="0.0000000000000000e+00" cType="1" res="-4.9329925328493118e-02" rms="1.1267541348934174e-01" purity="4.4671804644167423e-03" nType="-99"/>
          <Node pos="r" depth="2" NCoef="0" IVar="-1" Cut="0.0000000000000000e+00" cType="1" res="-4.7790054231882095e-02" rms="2.4300676584243774e-01" purity="1.4732965268194675e-02" nType="-99"/>
        </Node>
        <Node pos="r" depth="1" NCoef="0" IVar="-1" Cut="0.0000000000000000e+00" cType="1" res="-4.5275591313838959e-02" rms="3.3837088942527771e-01" purity="3.1496062874794006e-02" nType="-99"/>
      </Node>
    </BinaryTree>
    <BinaryTree type="DecisionTree" boostWeight="1.0000000000000000e+00" itree="3">
      <Node pos="s" depth="0" NCoef="0" IVar="24" Cut="2.2469251632690430e+01" cType="1" res="6.0560733079910278e-01" rms="1.6575868427753448e-01" purity="9.7158974409103394e-01" nType="0">
        <Node pos="l" depth="1" NCoef="0" IVar="24" Cut="6.4170355796813965e+00" cType="1" res="6.1225926876068115e-01" rms="1.4470566809177399e-01" purity="9.7853785753250122e-01" nType="0">
          <Node pos="l" depth="2" NCoef="0" IVar="-1" Cut="0.0000000000000000e+00" cType="1" res="8.9232638478279114e-02" rms="1.0724873095750809e-01" purity="9.8834949731826782e-01" nType="-99"/>
          <Node pos="r" depth="2" NCoef="0" IVar="-1" Cut="0.0000000000000000e+00" cType="1" res="8.0815240740776062e-02" rms="2.6261466741561890e-01" purity="9.2541164159774780e-01" nType="-99"/>
        </Node>
        <Node pos="r" depth="1" NCoef="0" IVar="-1" Cut="0.0000000000000000e+00" cType="1" res="7.2343558073043823e-02" rms="3.4460270404815674e-01" purity="8.6215293407440186e-01" nType="-99"/>
      </Node>
    </BinaryTree>
    <BinaryTree type="DecisionTree" boostWeight="1.0000000000000000e+00" itree="4">
      <Node pos="s" depth="0" NCoef="0" IVar="24" Cut="2.2469251632690430e+01" cType="1" res="6.0746139287948608e-01" rms="1.6038168966770172e-01" purity="1.8747262656688690e-02" nType="0">
        <Node pos="l" depth="1" NCoef="0" IVar="24" Cut="6.4037275314331055e+00" cType="1" res="6.1386704444885254e-01" rms="1.3928544521331787e-01" purity="1.3366827741265297e-02" nType="0">
          <Node pos="l" depth="2" NCoef="0" IVar="-1" Cut="0.0000000000000000e+00" cType="1" res="-4.7638751566410065e-02" rms="1.0776345431804657e-01" purity="7.5482758693397045e-03" nType="-99"/>
          <Node pos="r" depth="2" NCoef="0" IVar="-1" Cut="0.0000000000000000e+00" cType="1" res="-4.1919931769371033e-02" rms="2.4533340334892273e-01" purity="4.5427013188600540e-02" nType="-99"/>
        </Node>
        <Node pos="r" depth="1" NCoef="0" IVar="-1" Cut="0.0000000000000000e+00" cType="1" res="-3.2812703400850296e-02" rms="3.4099346399307251e-01" purity="1.0544727742671967e-01" nType="-99"/>
      </Node>
    </BinaryTree>
    <BinaryTree type="DecisionTree" boostWeight="1.0000000000000000e+00" itree="5">
      <Node pos="s" depth="0" NCoef="0" IVar="11" Cut="1.2486068904399872e-01" cType="1" res="6.0522311925888062e-01" rms="1.6682898998260498e-01" purity="8.7681347504258156e-03" nType="0">
        <Node pos="l" depth="1" NCoef="0" IVar="8" Cut="4.2850602418184280e-02" cType="1" res="5.6590312719345093e-01" rms="2.5260326266288757e-01" purity="2.0283371210098267e-02" nType="0">
          <Node pos="l" depth="2" NCoef="0" IVar="-1" Cut="0.0000000000000000e+00" cType="1" res="-4.4944852590560913e-02" rms="3.0553692579269409e-01" purity="2.4979636073112488e-02" nType="-99"/>
          <Node pos="r" depth="2" NCoef="0" IVar="-1" Cut="0.0000000000000000e+00" cType="1" res="-4.6547543257474899e-02" rms="1.5624925494194031e-01" purity="1.4559893868863583e-02" nType="-99"/>
        </Node>
        <Node pos="r" depth="1" NCoef="0" IVar="26" Cut="3.5202758312225342e+00" cType="1" res="6.1465030908584595e-01" rms="1.3691896200180054e-01" purity="6.0072946362197399e-03" nType="0">
          <Node pos="l" depth="2" NCoef="0" IVar="-1" Cut="0.0000000000000000e+00" cType="1" res="-4.8117626458406448e-02" rms="1.0890179872512817e-01" purity="4.3397396802902222e-03" nType="-99"/>
          <Node pos="r" depth="2" NCoef="0" IVar="-1" Cut="0.0000000000000000e+00" cType="1" res="-4.7271315008401871e-02" rms="1.8404330313205719e-01" purity="9.7560975700616837e-03" nType="-99"/>
        </Node>
      </Node>
    </BinaryTree>
    <BinaryTree type="DecisionTree" boostWeight="1.0000000000000000e+00" itree="6">
      <Node pos="s" depth="0" NCoef="0" IVar="26" Cut="3.8566210269927979e+00" cType="1" res="5.7462358474731445e-01" rms="1.6385295987129211e-01" purity="9.7214990854263306e-01" nType="0">
        <Node pos="l" depth="1" NCoef="0" IVar="11" Cut="8.6185507476329803e-02" cType="1" res="5.8245098590850830e-01" rms="1.3860824704170227e-01" purity="9.8026502132415771e-01" nType="0">
          <Node pos="l" depth="2" NCoef="0" IVar="-1" Cut="0.0000000000000000e+00" cType="1" res="7.5384177267551422e-02" rms="2.4241149425506592e-01" purity="9.3693369626998901e-01" nType="-99"/>
          <Node pos="r" depth="2" NCoef="0" IVar="-1" Cut="0.0000000000000000e+00" cType="1" res="8.1660605967044830e-02" rms="1.2132516503334045e-01" purity="9.8495972156524658e-01" nType="-99"/>
        </Node>
        <Node pos="r" depth="1" NCoef="0" IVar="8" Cut="2.8590682893991470e-02" cType="1" res="5.3985470533370972e-01" rms="2.4348159134387970e-01" purity="9.3610322475433350e-01" nType="0">
          <Node pos="l" depth="2" NCoef="0" IVar="-1" Cut="0.0000000000000000e+00" cType="1" res="6.6847883164882660e-02" rms="3.3109980821609497e-01" purity="8.7376427650451660e-01" nType="-99"/>
          <Node pos="r" depth="2" NCoef="0" IVar="-1" Cut="0.0000000000000000e+00" cType="1" res="8.1126295030117035e-02" rms="1.3884633779525757e-01" purity="9.8012888431549072e-01" nType="-99"/>
        </Node>
      </Node>
    </BinaryTree>
    <BinaryTree type="DecisionTree" boostWeight="1.0000000000000000e+00" itree="7">
      <Node pos="s" depth="0" NCoef="0" IVar="26" Cut="4.0293669700622559e+00" cType="1" res="5.7417625188827515e-01" rms="1.6520588099956512e-01" purity="2.0062262192368507e-02" nType="0">
        <Node pos="l" depth="1" NCoef="0" IVar="24" Cut="1.8129013061523438e+01" cType="1" res="5.8236384391784668e-01" rms="1.3895890116691589e-01" purity="1.2425514869391918e-02" nType="0">
          <Node pos="l" depth="2" NCoef="0" IVar="-1" Cut="0.0000000000000000e+00" cType="1" res="-4.6327251940965652e-02" rms="1.1907251924276352e-01" purity="8.6256675422191620e-03" nType="-99"/>
          <Node pos="r" depth="2" NCoef="0" IVar="-1" Cut="0.0000000000000000e+00" cType="1" res="-3.7139158695936203e-02" rms="3.0226689577102661e-01" purity="7.0021882653236389e-02" nType="-99"/>
        </Node>
        <Node pos="r" depth="1" NCoef="0" IVar="8" Cut="3.4929499030113220e-02" cType="1" res="5.2727353572845459e-01" rms="2.6540881395339966e-01" purity="6.3809156417846680e-02" nType="0">
          <Node pos="l" depth="2" NCoef="0" IVar="-1" Cut="0.0000000000000000e+00" cType="1" res="-3.0096145346760750e-02" rms="3.3850592374801636e-01" purity="1.1382734775543213e-01" nType="-99"/>
          <Node pos="r" depth="2" NCoef="0" IVar="-1" Cut="0.0000000000000000e+00" cType="1" res="-4.5803703367710114e-02" rms="1.3682003319263458e-01" purity="1.2214342132210732e-02" nType="-99"/>
        </Node>
      </Node>
    </BinaryTree>
    <BinaryTree type="DecisionTree" boostWeight="1.0000000000000000e+00" itree="8">
      <Node pos="s" depth="0" NCoef="0" IVar="26" Cut="4.1677298545837402e+00" cType="1" res="5.7398927211761475e-01" rms="1.6551177203655243e-01" purity="8.2524558529257774e-03" nType="0">
        <Node pos="l" depth="1" NCoef="0" IVar="11" Cut="8.4755860269069672e-02" cType="1" res="5.8252048492431641e-01" rms="1.3817630708217621e-01" purity="7.2155348025262356e-03" nType="0">
          <Node pos="l" depth="2" NCoef="0" IVar="-1" Cut="0.0000000000000000e+00" cType="1" res="-4.3707177042961121e-02" rms="2.5583526492118835e-01" purity="2.5279885157942772e-02" nType="-99"/>
          <Node pos="r" depth="2" NCoef="0" IVar="-1" Cut="0.0000000000000000e+00" cType="1" res="-4.6809822320938110e-02" rms="1.1881849169731140e-01" purity="5.3836293518543243e-03" nType="-99"/>
        </Node>
        <Node pos="r" depth="1" NCoef="0" IVar="8" Cut="2.8394052758812904e-02" cType="1" res="5.1487231254577637e-01" rms="2.8446415066719055e-01" purity="1.5437788330018520e-02" nType="0">
          <Node pos="l" depth="2" NCoef="0" IVar="-1" Cut="0.0000000000000000e+00" cType="1" res="-4.3908961117267609e-02" rms="3.6356660723686218e-01" purity="2.3598819971084595e-02" nType="-99"/>
          <Node pos="r" depth="2" NCoef="0" IVar="-1" Cut="0.0000000000000000e+00" cType="1" res="-4.6384152024984360e-02" rms="1.6849610209465027e-01" purity="8.2393754273653030e-03" nType="-99"/>
        </Node>
      </Node>
    </BinaryTree>
    <BinaryTree type="DecisionTree" boostWeight="1.0000000000000000e+00" itree="9">
      <Node pos="s" depth="0" NCoef="0" IVar="11" Cut="1.2729077041149139e-01" cType="1" res="5.4542022943496704e-01" rms="1.5994451940059662e-01" purity="9.7338181734085083e-01" nType="0">
        <Node pos="l" depth="1" NCoef="0" IVar="16" Cut="7.3069043457508087e-02" cType="1" res="5.1172345876693726e-01" rms="2.4079301953315735e-01" purity="9.3755406141281128e-01" nType="0">
          <Node pos="l" depth="2" NCoef="0" IVar="-1" Cut="0.0000000000000000e+00" cType="1" res="6.7075900733470917e-02" rms="2.7627545595169067e-01" purity="9.1590541601181030e-01" nType="-99"/>
          <Node pos="r" depth="2" NCoef="0" IVar="-1" Cut="0.0000000000000000e+00" cType="1" res="7.2889558970928192e-02" rms="1.8894222378730774e-01" purity="9.6264010667800903e-01" nType="-99"/>
        </Node>
        <Node pos="r" depth="1" NCoef="0" IVar="8" Cut="4.5450739562511444e-02" cType="1" res="5.5385416746139526e-01" rms="1.3083505630493164e-01" purity="9.8234909772872925e-01" nType="0">
          <Node pos="l" depth="2" NCoef="0" IVar="-1" Cut="0.0000000000000000e+00" cType="1" res="7.3168672621250153e-02" rms="1.8316179513931274e-01" purity="9.6475219726562500e-01" nType="-99"/>
          <Node pos="r" depth="2" NCoef="0" IVar="-1" Cut="0.0000000000000000e+00" cType="1" res="7.6896622776985168e-02" rms="7.5431369245052338e-02" purity="9.9425148963928223e-01" nType="-99"/>
        </Node>
      </Node>
    </BinaryTree>
    <BinaryTree type="DecisionTree" boostWeight="1.0000000000000000e+00" itree="10">
      <Node pos="s" depth="0" NCoef="0" IVar="24" Cut="2.2469251632690430e+01" cType="1" res="5.4607510566711426e-01" rms="1.5796227753162384e-01" purity="1.8905732780694962e-02" nType="0">
        <Node pos="l" depth="1" NCoef="0" IVar="24" Cut="7.4809074401855469e+00" cType="1" res="5.5190223455429077e-01" rms="1.3733199238777161e-01" purity="1.3895736075937748e-02" nType="0">
          <Node pos="l" depth="2" NCoef="0" IVar="-1" Cut="0.0000000000000000e+00" cType="1" res="-4.5339856296777725e-02" rms="1.0785734653472900e-01" purity="8.1186518073081970e-03" nType="-99"/>
          <Node pos="r" depth="2" NCoef="0" IVar="-1" Cut="0.0000000000000000e+00" cType="1" res="-3.8044720888137817e-02" rms="2.5992295145988464e-01" purity="5.4958779364824295e-02" nType="-99"/>
        </Node>
        <Node pos="r" depth="1" NCoef="0" IVar="-1" Cut="0.0000000000000000e+00" cType="1" res="-3.1123748049139977e-02" rms="3.3943113684654236e-01" purity="1.0111223161220551e-01" nType="-99"/>
      </Node>
    </BinaryTree>
    <BinaryTree type="DecisionTree" boostWeight="1.0000000000000000e+00" itree="11">
      <Node pos="s" depth="0" NCoef="0" IVar="24" Cut="2.2469251632690430e+01" cType="1" res="5.4600703716278076e-01" rms="1.5826047956943512e-01" purity="8.6630424484610558e-03" nType="0">
        <Node pos="l" depth="1" NCoef="0" IVar="24" Cut="1.0696850776672363e+01" cType="1" res="5.5248659849166870e-01" rms="1.3534340262413025e-01" purity="6.4589902758598328e-03" nType="0">
          <Node pos="l" depth="2" NCoef="0" IVar="-1" Cut="0.0000000000000000e+00" cType="1" res="-4.5854736119508743e-02" rms="1.1677382141351700e-01" purity="4.6713491901755333e-03" nType="-99"/>
          <Node pos="r" depth="2" NCoef="0" IVar="-1" Cut="0.0000000000000000e+00" cType="1" res="-4.1638884693384171e-02" rms="2.8129914402961731e-01" purity="3.1278748065233231e-02" nType="-99"/>
        </Node>
        <Node pos="r" depth="1" NCoef="0" IVar="-1" Cut="0.0000000000000000e+00" cType="1" res="-3.9764251559972763e-02" rms="3.4713432192802429e-01" purity="4.3606076389551163e-02" nType="-99"/>
      </Node>
    </BinaryTree>
    <BinaryTree type="DecisionTree" boostWeight="1.0000000000000000e+00" itree="12">
      <Node pos="s" depth="0" NCoef="0" IVar="24" Cut="2.2468404769897461e+01" cType="1" res="5.1692968606948853e-01" rms="1.5750089287757874e-01" purity="9.7413015365600586e-01" nType="0">
        <Node pos="l" depth="1" NCoef="0" IVar="24" Cut="1.0687010765075684e+01" cType="1" res="5.2326726913452148e-01" rms="1.3436269760131836e-01" purity="9.8142302036285400e-01" nType="0">
          <Node pos="l" depth="2" NCoef="0" IVar="-1" Cut="0.0000000000000000e+00" cType="1" res="7.0753835141658783e-02" rms="1.1834478378295898e-01" purity="9.8568207025527954e-01" nType="-99"/>
          <Node pos="r" depth="2" NCoef="0" IVar="-1" Cut="0.0000000000000000e+00" cType="1" res="6.3302472233772278e-02" rms="2.6922193169593811e-01" purity="9.2097836732864380e-01" nType="-99"/>
        </Node>
        <Node pos="r" depth="1" NCoef="0" IVar="-1" Cut="0.0000000000000000e+00" cType="1" res="5.6709781289100647e-02" rms="3.4402322769165039e-01" purity="8.6223280429840088e-01" nType="-99"/>
      </Node>
    </BinaryTree>
    <BinaryTree type="DecisionTree" boostWeight="1.0000000000000000e+00" itree="13">
      <Node pos="s" depth="0" NCoef="0" IVar="24" Cut="2.2469251632690430e+01" cType="1" res="5.1346671581268311e-01" rms="1.6746632754802704e-01" purity="2.1232040598988533e-02" nType="0">
        <Node pos="l" depth="1" NCoef="0" IVar="24" Cut="7.4865417480468750e+00" cType="1" res="5.1988720893859863e-01" rms="1.4588318765163422e-01" purity="1.5715390443801880e-02" nType="0">
          <Node pos="l" depth="2" NCoef="0" IVar="-1" Cut="0.0000000000000000e+00" cType="1" res="-4.4127054512500763e-02" rms="1.1654293537139893e-01" purity="9.4406334683299065e-03" nType="-99"/>
          <Node pos="r" depth="2" NCoef="0" IVar="-1" Cut="0.0000000000000000e+00" cType="1" res="-3.6150172352790833e-02" rms="2.6885405182838440e-01" purity="5.9609200805425644e-02" nType="-99"/>
        </Node>
        <Node pos="r" depth="1" NCoef="0" IVar="-1" Cut="0.0000000000000000e+00" cType="1" res="-2.8790999203920364e-02" rms="3.5142055153846741e-01" purity="1.0792416334152222e-01" nType="-99"/>
      </Node>
    </BinaryTree>
    <BinaryTree type="DecisionTree" boostWeight="1.0000000000000000e+00" itree="14">
      <Node pos="s" depth="0" NCoef="0" IVar="11" Cut="8.7319664657115936e-02" cType="1" res="5.1486790180206299e-01" rms="1.6345915198326111e-01" purity="7.8988485038280487e-03" nType="0">
        <Node pos="l" depth="1" NCoef="0" IVar="-1" Cut="0.0000000000000000e+00" cType="1" res="-4.1476547718048096e-02" rms="2.7801790833473206e-01" purity="2.5974025949835777e-02" nType="-99"/>
        <Node pos="r" depth="1" NCoef="0" IVar="13" Cut="2.6190476417541504e+00" cType="1" res="5.2066421508789062e-01" rms="1.4404313266277313e-01" purity="5.8848122134804726e-03" nType="0">
          <Node pos="l" depth="2" NCoef="0" IVar="-1" Cut="0.0000000000000000e+00" cType="1" res="-4.4414281845092773e-02" rms="2.0698453485965729e-01" purity="7.5334822759032249e-03" nType="-99"/>
          <Node pos="r" depth="2" NCoef="0" IVar="-1" Cut="0.0000000000000000e+00" cType="1" res="-4.4761776924133301e-02" rms="1.1794843524694443e-01" purity="5.3909481503069401e-03" nType="-99"/>
        </Node>
      </Node>
    </BinaryTree>
    <BinaryTree type="DecisionTree" boostWeight="1.0000000000000000e+00" itree="15">
      <Node pos="s" depth="0" NCoef="0" IVar="24" Cut="1.9747388839721680e+01" cType="1" res="4.8661312460899353e-01" rms="1.6363216936588287e-01" purity="9.7191649675369263e-01" nType="0">
        <Node pos="l" depth="1" NCoef="0" IVar="24" Cut="4.7009897232055664e+00" cType="1" res="4.9379199743270874e-01" rms="1.3776347041130066e-01" purity="9.8041975498199463e-01" nType="0">
          <Node pos="l" depth="2" NCoef="0" IVar="-1" Cut="0.0000000000000000e+00" cType="1" res="6.6997893154621124e-02" rms="9.8428517580032349e-02" purity="9.9016696214675903e-01" nType="-99"/>
          <Node pos="r" depth="2" NCoef="0" IVar="-1" Cut="0.0000000000000000e+00" cType="1" res="6.1975505203008652e-02" rms="2.2508415579795837e-01" purity="9.4599574804306030e-01" nType="-99"/>
        </Node>
        <Node pos="r" depth="1" NCoef="0" IVar="-1" Cut="0.0000000000000000e+00" cType="1" res="5.1716193556785583e-02" rms="3.5368487238883972e-01" purity="8.5288965702056885e-01" nType="-99"/>
      </Node>
    </BinaryTree>
    <BinaryTree type="DecisionTree" boostWeight="1.0000000000000000e+00" itree="16">
      <Node pos="s" depth="0" NCoef="0" IVar="24" Cut="1.9747388839721680e+01" cType="1" res="4.8704093694686890e-01" rms="1.6242623329162598e-01" purity="1.9292231649160385e-02" nType="0">
        <Node pos="l" depth="1" NCoef="0" IVar="24" Cut="4.6992893218994141e+00" cType="1" res="4.9447441101074219e-01" rms="1.3534334301948547e-01" purity="1.2379556894302368e-02" nType="0">
          <Node pos="l" depth="2" NCoef="0" IVar="-1" Cut="0.0000000000000000e+00" cType="1" res="-4.3875671923160553e-02" rms="9.5797158777713776e-02" purity="5.4603125900030136e-03" nType="-99"/>
          <Node pos="r" depth="2" NCoef="0" IVar="-1" Cut="0.0000000000000000e+00" cType="1" res="-3.8815591484308243e-02" rms="2.2149331867694855e-01" purity="3.6442335695028305e-02" nType="-99"/>
        </Node>
        <Node pos="r" depth="1" NCoef="0" IVar="-1" Cut="0.0000000000000000e+00" cType="1" res="-2.6731414720416069e-02" rms="3.5415616631507874e-01" purity="1.1366538703441620e-01" nType="-99"/>
      </Node>
    </BinaryTree>
    <BinaryTree type="DecisionTree" boostWeight="1.0000000000000000e+00" itree="17">
      <Node pos="s" depth="0" NCoef="0" IVar="14" Cut="7.3446092605590820e+00" cType="1" res="4.8615399003028870e-01" rms="1.6506387293338776e-01" purity="8.5012866184115410e-03" nType="0">
        <Node pos="l" depth="1" NCoef="0" IVar="25" Cut="2.5592890381813049e-01" cType="1" res="4.9583610892295837e-01" rms="1.3251960277557373e-01" purity="7.6331179589033127e-03" nType="0">
          <Node pos="l" depth="2" NCoef="0" IVar="-1" Cut="0.0000000000000000e+00" cType="1" res="-3.9097189903259277e-02" rms="2.4899497628211975e-01" purity="3.3384695649147034e-02" nType="-99"/>
          <Node pos="r" depth="2" NCoef="0" IVar="-1" Cut="0.0000000000000000e+00" cType="1" res="-4.4070705771446228e-02" rms="1.0588117688894272e-01" purity="4.1264514438807964e-03" nType="-99"/>
        </Node>
        <Node pos="r" depth="1" NCoef="0" IVar="-1" Cut="0.0000000000000000e+00" cType="1" res="-4.1141238063573837e-02" rms="3.9183917641639709e-01" purity="2.1978022530674934e-02" nType="-99"/>
      </Node>
    </BinaryTree>
    <BinaryTree type="DecisionTree" boostWeight="1.0000000000000000e+00" itree="18">
      <Node pos="s" depth="0" NCoef="0" IVar="24" Cut="2.2468404769897461e+01" cType="1" res="4.6018749475479126e-01" rms="1.6200698912143707e-01" purity="9.7237825393676758e-01" nType="0">
        <Node pos="l" depth="1" NCoef="0" IVar="24" Cut="5.3467841148376465e+00" cType="1" res="4.6552115678787231e-01" rms="1.4148119091987610e-01" purity="9.7925567626953125e-01" nType="0">
          <Node pos="l" depth="2" NCoef="0" IVar="-1" Cut="0.0000000000000000e+00" cType="1" res="6.3262946903705597e-02" rms="1.0107563436031342e-01" purity="9.8961186408996582e-01" nType="-99"/>
          <Node pos="r" depth="2" NCoef="0" IVar="-1" Cut="0.0000000000000000e+00" cType="1" res="5.7337380945682526e-02" rms="2.4412751197814941e-01" purity="9.3577247858047485e-01" nType="-99"/>
        </Node>
        <Node pos="r" depth="1" NCoef="0" IVar="-1" Cut="0.0000000000000000e+00" cType="1" res="4.9818165600299835e-02" rms="3.4589648246765137e-01" purity="8.6043024063110352e-01" nType="-99"/>
      </Node>
    </BinaryTree>
    <BinaryTree type="DecisionTree" boostWeight="1.0000000000000000e+00" itree="19">
      <Node pos="s" depth="0" NCoef="0" IVar="11" Cut="8.3137437701225281e-02" cType="1" res="4.5919278264045715e-01" rms="1.6514821350574493e-01" purity="1.9947612658143044e-02" nType="0">
        <Node pos="l" depth="1" NCoef="0" IVar="-1" Cut="0.0000000000000000e+00" cType="1" res="-3.3384881913661957e-02" rms="2.7731046080589294e-01" purity="6.1871860176324844e-02" nType="-99"/>
        <Node pos="r" depth="1" NCoef="0" IVar="13" Cut="2.6190476417541504e+00" cType="1" res="4.6412116289138794e-01" rms="1.4832967519760132e-01" purity="1.5717590227723122e-02" nType="0">
          <Node pos="l" depth="2" NCoef="0" IVar="-1" Cut="0.0000000000000000e+00" cType="1" res="-3.8149647414684296e-02" rms="2.0041544735431671e-01" purity="3.3485133200883865e-02" nType="-99"/>
          <Node pos="r" depth="2" NCoef="0" IVar="-1" Cut="0.0000000000000000e+00" cType="1" res="-4.2299635708332062e-02" rms="1.2736964225769043e-01" purity="1.0211282409727573e-02" nType="-99"/>
        </Node>
      </Node>
    </BinaryTree>
    <BinaryTree type="DecisionTree" boostWeight="1.0000000000000000e+00" itree="20">
      <Node pos="s" depth="0" NCoef="0" IVar="24" Cut="2.2468404769897461e+01" cType="1" res="4.6085414290428162e-01" rms="1.6008794307708740e-01" purity="8.0954041332006454e-03" nType="0">
        <Node pos="l" depth="1" NCoef="0" IVar="24" Cut="9.6242113113403320e+00" cType="1" res="4.6625870466232300e-01" rms="1.3891568779945374e-01" purity="6.5369554795324802e-03" nType="0">
          <Node pos="l" depth="2" NCoef="0" IVar="-1" Cut="0.0000000000000000e+00" cType="1" res="-4.3152030557394028e-02" rms="1.1712872982025146e-01" purity="4.5262523926794529e-03" nType="-99"/>
          <Node pos="r" depth="2" NCoef="0" IVar="-1" Cut="0.0000000000000000e+00" cType="1" res="-3.8853019475936890e-02" rms="2.8232291340827942e-01" purity="2.9558541253209114e-02" nType="-99"/>
        </Node>
        <Node pos="r" depth="1" NCoef="0" IVar="-1" Cut="0.0000000000000000e+00" cType="1" res="-3.8464486598968506e-02" rms="3.4455251693725586e-01" purity="3.2956223934888840e-02" nType="-99"/>
      </Node>
    </BinaryTree>
    <BinaryTree type="DecisionTree" boostWeight="1.0000000000000000e+00" itree="21">
      <Node pos="s" depth="0" NCoef="0" IVar="11" Cut="1.2804864346981049e-01" cType="1" res="4.3461015820503235e-01" rms="1.6157551109790802e-01" purity="9.7247761487960815e-01" nType="0">
        <Node pos="l" depth="1" NCoef="0" IVar="16" Cut="7.3069043457508087e-02" cType="1" res="4.0605303645133972e-01" rms="2.3780424892902374e-01" purity="9.3852162361145020e-01" nType="0">
          <Node pos="l" depth="2" NCoef="0" IVar="-1" Cut="0.0000000000000000e+00" cType="1" res="5.1497694104909897e-02" rms="2.7869188785552979e-01" purity="9.1347205638885498e-01" nType="-99"/>
          <Node pos="r" depth="2" NCoef="0" IVar="-1" Cut="0.0000000000000000e+00" cType="1" res="5.7647805660963058e-02" rms="1.7838670313358307e-01" purity="9.6657466888427734e-01" nType="-99"/>
        </Node>
        <Node pos="r" depth="1" NCoef="0" IVar="26" Cut="4.2141904830932617e+00" cType="1" res="4.4171500205993652e-01" rms="1.3519956171512604e-01" purity="9.8092561960220337e-01" nType="0">
          <Node pos="l" depth="2" NCoef="0" IVar="-1" Cut="0.0000000000000000e+00" cType="1" res="6.0023646801710129e-02" rms="1.1107645928859711e-01" purity="9.8731541633605957e-01" nType="-99"/>
          <Node pos="r" depth="2" NCoef="0" IVar="-1" Cut="0.0000000000000000e+00" cType="1" res="5.3665779531002045e-02" rms="2.4684478342533112e-01" purity="9.3298655748367310e-01" nType="-99"/>
        </Node>
      </Node>
    </BinaryTree>
    <BinaryTree type="DecisionTree" boostWeight="1.0000000000000000e+00" itree="22">
      <Node pos="s" depth="0" NCoef="0" IVar="24" Cut="2.2469251632690430e+01" cType="1" res="4.3636226654052734e-01" rms="1.5667760372161865e-01" purity="1.8761288374662399e-02" nType="0">
        <Node pos="l" depth="1" NCoef="0" IVar="24" Cut="1.0696850776672363e+01" cType="1" res="4.4089627265930176e-01" rms="1.3721372187137604e-01" purity="1.3843723572790623e-02" nType="0">
          <Node pos="l" depth="2" NCoef="0" IVar="-1" Cut="0.0000000000000000e+00" cType="1" res="-4.1418489068746567e-02" rms="1.1865864694118500e-01" purity="1.0157676413655281e-02" nType="-99"/>
          <Node pos="r" depth="2" NCoef="0" IVar="-1" Cut="0.0000000000000000e+00" cType="1" res="-3.1988918781280518e-02" rms="2.8544086217880249e-01" purity="6.5157115459442139e-02" nType="-99"/>
        </Node>
        <Node pos="r" depth="1" NCoef="0" IVar="-1" Cut="0.0000000000000000e+00" cType="1" res="-2.7561726048588753e-02" rms="3.3125531673431396e-01" purity="9.6710845828056335e-02" nType="-99"/>
      </Node>
    </BinaryTree>
    <BinaryTree type="DecisionTree" boostWeight="1.0000000000000000e+00" itree="23">
      <Node pos="s" depth="0" NCoef="0" IVar="27" Cut="4.9047617912292480e+00" cType="1" res="4.3394151329994202e-01" rms="1.6332359611988068e-01" purity="8.5066985338926315e-03" nType="0">
        <Node pos="l" depth="1" NCoef="0" IVar="25" Cut="3.8669645786285400e-01" cType="1" res="3.8834488391876221e-01" rms="2.5983592867851257e-01" purity="1.5861742198467255e-02" nType="0">
          <Node pos="l" depth="2" NCoef="0" IVar="-1" Cut="0.0000000000000000e+00" cType="1" res="-3.8870781660079956e-02" rms="2.9843455553054810e-01" purity="2.3912003263831139e-02" nType="-99"/>
          <Node pos="r" depth="2" NCoef="0" IVar="-1" Cut="0.0000000000000000e+00" cType="1" res="-4.1726600378751755e-02" rms="2.1281769871711731e-01" purity="7.9699950292706490e-03" nType="-99"/>
        </Node>
        <Node pos="r" depth="1" NCoef="0" IVar="11" Cut="1.2899200618267059e-01" cType="1" res="4.4029018282890320e-01" rms="1.4373031258583069e-01" purity="7.4826120398938656e-03" nType="0">
          <Node pos="l" depth="2" NCoef="0" IVar="-1" Cut="0.0000000000000000e+00" cType="1" res="-3.9753444492816925e-02" rms="2.2073766589164734e-01" purity="1.9436519593000412e-02" nType="-99"/>
          <Node pos="r" depth="2" NCoef="0" IVar="-1" Cut="0.0000000000000000e+00" cType="1" res="-4.2338717728853226e-02" rms="1.1880043148994446e-01" purity="4.7717252746224403e-03" nType="-99"/>
        </Node>
      </Node>
    </BinaryTree>
    <BinaryTree type="DecisionTree" boostWeight="1.0000000000000000e+00" itree="24">
      <Node pos="s" depth="0" NCoef="0" IVar="11" Cut="8.6185507476329803e-02" cType="1" res="4.0934714674949646e-01" rms="1.6345825791358948e-01" purity="9.7175073623657227e-01" nType="0">
        <Node pos="l" depth="1" NCoef="0" IVar="-1" Cut="0.0000000000000000e+00" cType="1" res="4.8360973596572876e-02" rms="2.8302875161170959e-01" purity="9.1076534986495972e-01" nType="-99"/>
        <Node pos="r" depth="1" NCoef="0" IVar="8" Cut="6.0285314917564392e-02" cType="1" res="4.1443669795989990e-01" rms="1.4521111547946930e-01" purity="9.7785979509353638e-01" nType="0">
          <Node pos="l" depth="2" NCoef="0" IVar="-1" Cut="0.0000000000000000e+00" cType="1" res="5.4517310112714767e-02" rms="1.8302823603153229e-01" purity="9.6431374549865723e-01" nType="-99"/>
          <Node pos="r" depth="2" NCoef="0" IVar="-1" Cut="0.0000000000000000e+00" cType="1" res="5.8033153414726257e-02" rms="8.3242364227771759e-02" purity="9.9294120073318481e-01" nType="-99"/>
        </Node>
      </Node>
    </BinaryTree>
    <BinaryTree type="DecisionTree" boostWeight="1.0000000000000000e+00" itree="25">
      <Node pos="s" depth="0" NCoef="0" IVar="11" Cut="8.6185507476329803e-02" cType="1" res="4.1031008958816528e-01" rms="1.6079518198966980e-01" purity="1.8951740115880966e-02" nType="0">
        <Node pos="l" depth="1" NCoef="0" IVar="-1" Cut="0.0000000000000000e+00" cType="1" res="-3.2244257628917694e-02" rms="2.7113690972328186e-01" purity="5.6925419718027115e-02" nType="-99"/>
        <Node pos="r" depth="1" NCoef="0" IVar="8" Cut="4.5450739562511444e-02" cType="1" res="4.1491404175758362e-01" rms="1.4367477595806122e-01" purity="1.4976738020777702e-02" nType="0">
          <Node pos="l" depth="2" NCoef="0" IVar="-1" Cut="0.0000000000000000e+00" cType="1" res="-3.7065275013446808e-02" rms="1.9497999548912048e-01" purity="2.9750553891062737e-02" nType="-99"/>
          <Node pos="r" depth="2" NCoef="0" IVar="-1" Cut="0.0000000000000000e+00" cType="1" res="-4.1817262768745422e-02" rms="8.8476590812206268e-02" purity="4.3780440464615822e-03" nType="-99"/>
        </Node>
      </Node>
    </BinaryTree>
    <BinaryTree type="DecisionTree" boostWeight="1.0000000000000000e+00" itree="26">
      <Node pos="s" depth="0" NCoef="0" IVar="24" Cut="2.2469251632690430e+01" cType="1" res="4.0919485688209534e-01" rms="1.6414798796176910e-01" purity="8.8307913392782211e-03" nType="0">
        <Node pos="l" depth="1" NCoef="0" IVar="24" Cut="9.6255540847778320e+00" cType="1" res="4.1458401083946228e-01" rms="1.4275030791759491e-01" purity="7.0446468889713287e-03" nType="0">
          <Node pos="l" depth="2" NCoef="0" IVar="-1" Cut="0.0000000000000000e+00" cType="1" res="-4.1467092931270599e-02" rms="1.2329911440610886e-01" purity="5.4453783668577671e-03" nType="-99"/>
          <Node pos="r" depth="2" NCoef="0" IVar="-1" Cut="0.0000000000000000e+00" cType="1" res="-3.7916738539934158e-02" rms="2.7686816453933716e-01" purity="2.5239005684852600e-02" nType="-99"/>
        </Node>
        <Node pos="r" depth="1" NCoef="0" IVar="-1" Cut="0.0000000000000000e+00" cType="1" res="-3.5978309810161591e-02" rms="3.4999021887779236e-01" purity="3.6893203854560852e-02" nType="-99"/>
      </Node>
    </BinaryTree>
    <BinaryTree type="DecisionTree" boostWeight="1.0000000000000000e+00" itree="27">
      <Node pos="s" depth="0" NCoef="0" IVar="24" Cut="2.2468404769897461e+01" cType="1" res="3.8585624098777771e-01" rms="1.6422645747661591e-01" purity="9.7142529487609863e-01" nType="0">
        <Node pos="l" depth="1" NCoef="0" IVar="24" Cut="6.4181103706359863e+00" cType="1" res="3.9050915837287903e-01" rms="1.4523828029632568e-01" purity="9.7799772024154663e-01" nType="0">
          <Node pos="l" depth="2" NCoef="0" IVar="-1" Cut="0.0000000000000000e+00" cType="1" res="5.4839465767145157e-02" rms="1.0940738767385483e-01" purity="9.8775494098663330e-01" nType="-99"/>
          <Node pos="r" depth="2" NCoef="0" IVar="-1" Cut="0.0000000000000000e+00" cType="1" res="4.7652918845415115e-02" rms="2.6296913623809814e-01" purity="9.2445325851440430e-01" nType="-99"/>
        </Node>
        <Node pos="r" depth="1" NCoef="0" IVar="-1" Cut="0.0000000000000000e+00" cType="1" res="4.1891898959875107e-02" rms="3.4086540341377258e-01" purity="8.6487829685211182e-01" nType="-99"/>
      </Node>
    </BinaryTree>
    <BinaryTree type="DecisionTree" boostWeight="1.0000000000000000e+00" itree="28">
      <Node pos="s" depth="0" NCoef="0" IVar="24" Cut="2.2469251632690430e+01" cType="1" res="3.8755398988723755e-01" rms="1.5921452641487122e-01" purity="1.8701389431953430e-02" nType="0">
        <Node pos="l" depth="1" NCoef="0" IVar="24" Cut="6.4181103706359863e+00" cType="1" res="3.9289602637290955e-01" rms="1.3697628676891327e-01" purity="1.3108556158840656e-02" nType="0">
          <Node pos="l" depth="2" NCoef="0" IVar="-1" Cut="0.0000000000000000e+00" cType="1" res="-4.0678322315216064e-02" rms="1.0228868573904037e-01" purity="6.4004096202552319e-03" nType="-99"/>
          <Node pos="r" depth="2" NCoef="0" IVar="-1" Cut="0.0000000000000000e+00" cType="1" res="-3.2585456967353821e-02" rms="2.5142070651054382e-01" purity="5.0334889441728592e-02" nType="-99"/>
        </Node>
        <Node pos="r" depth="1" NCoef="0" IVar="-1" Cut="0.0000000000000000e+00" cType="1" res="-2.3403279483318329e-02" rms="3.4796339273452759e-01" purity="1.0631068050861359e-01" nType="-99"/>
      </Node>
    </BinaryTree>
    <BinaryTree type="DecisionTree" boostWeight="1.0000000000000000e+00" itree="29">
      <Node pos="s" depth="0" NCoef="0" IVar="24" Cut="2.0621852874755859e+01" cType="1" res="3.8614508509635925e-01" rms="1.6326268017292023e-01" purity="8.0619622021913528e-03" nType="0">
        <Node pos="l" depth="1" NCoef="0" IVar="24" Cut="5.8874502182006836e+00" cType="1" res="3.9169523119926453e-01" rms="1.4088250696659088e-01" purity="6.5825898200273514e-03" nType="0">
          <Node pos="l" depth="2" NCoef="0" IVar="-1" Cut="0.0000000000000000e+00" cType="1" res="-4.1083883494138718e-02" rms="1.0838498175144196e-01" purity="3.9169313386082649e-03" nType="-99"/>
          <Node pos="r" depth="2" NCoef="0" IVar="-1" Cut="0.0000000000000000e+00" cType="1" res="-3.8110636174678802e-02" rms="2.4259604513645172e-01" purity="1.9823787733912468e-02" nType="-99"/>
        </Node>
        <Node pos="r" depth="1" NCoef="0" IVar="-1" Cut="0.0000000000000000e+00" cType="1" res="-3.6538492888212204e-02" rms="3.4531003236770630e-01" purity="2.9716344550251961e-02" nType="-99"/>
      </Node>
    </BinaryTree>
    <BinaryTree type="DecisionTree" boostWeight="1.0000000000000000e+00" itree="30">
      <Node pos="s" depth="0" NCoef="0" IVar="24" Cut="2.2469251632690430e+01" cType="1" res="3.6475047469139099e-01" rms="1.6062264144420624e-01" purity="9.7259759902954102e-01" nType="0">
        <Node pos="l" depth="1" NCoef="0" IVar="24" Cut="1.0695059776306152e+01" cType="1" res="3.6927899718284607e-01" rms="1.4070615172386169e-01" purity="9.7934848070144653e-01" nType="0">
          <Node pos="l" depth="2" NCoef="0" IVar="-1" Cut="0.0000000000000000e+00" cType="1" res="5.2408494055271149e-02" rms="1.2095451354980469e-01" purity="9.8493307828903198e-01" nType="-99"/>
          <Node pos="r" depth="2" NCoef="0" IVar="-1" Cut="0.0000000000000000e+00" cType="1" res="4.3235123157501221e-02" rms="2.9186314344406128e-01" purity="9.0505492687225342e-01" nType="-99"/>
        </Node>
        <Node pos="r" depth="1" NCoef="0" IVar="-1" Cut="0.0000000000000000e+00" cType="1" res="3.9730876684188843e-02" rms="3.4185719490051270e-01" purity="8.6379396915435791e-01" nType="-99"/>
      </Node>
    </BinaryTree>
    <BinaryTree type="DecisionTree" boostWeight="1.0000000000000000e+00" itree="31">
      <Node pos="s" depth="0" NCoef="0" IVar="24" Cut="2.2469251632690430e+01" cType="1" res="3.6497479677200317e-01" rms="1.5994992852210999e-01" purity="1.8546467646956444e-02" nType="0">
        <Node pos="l" depth="1" NCoef="0" IVar="24" Cut="9.6242113113403320e+00" cType="1" res="3.7046822905540466e-01" rms="1.3677987456321716e-01" purity="1.2489591725170612e-02" nType="0">
          <Node pos="l" depth="2" NCoef="0" IVar="-1" Cut="0.0000000000000000e+00" cType="1" res="-3.9451483637094498e-02" rms="1.1808717250823975e-01" purity="9.2990463599562645e-03" nType="-99"/>
          <Node pos="r" depth="2" NCoef="0" IVar="-1" Cut="0.0000000000000000e+00" cType="1" res="-3.2251968979835510e-02" rms="2.6589742302894592e-01" purity="4.8503220081329346e-02" nType="-99"/>
        </Node>
        <Node pos="r" depth="1" NCoef="0" IVar="-1" Cut="0.0000000000000000e+00" cType="1" res="-2.0741626620292664e-02" rms="3.5688242316246033e-01" purity="1.1544153839349747e-01" nType="-99"/>
      </Node>
    </BinaryTree>
    <BinaryTree type="DecisionTree" boostWeight="1.0000000000000000e+00" itree="32">
      <Node pos="s" depth="0" NCoef="0" IVar="24" Cut="2.2469251632690430e+01" cType="1" res="3.6398094892501831e-01" rms="1.6283319890499115e-01" purity="8.4642237052321434e-03" nType="0">
        <Node pos="l" depth="1" NCoef="0" IVar="24" Cut="1.0686847686767578e+01" cType="1" res="3.6924391984939575e-01" rms="1.4069178700447083e-01" purity="6.8109347485005856e-03" nType="0">
          <Node pos="l" depth="2" NCoef="0" IVar="-1" Cut="0.0000000000000000e+00" cType="1" res="-4.0191296488046646e-02" rms="1.2303204834461212e-01" purity="5.2528344094753265e-03" nType="-99"/>
          <Node pos="r" depth="2" NCoef="0" IVar="-1" Cut="0.0000000000000000e+00" cType="1" res="-3.5843566060066223e-02" rms="2.8319525718688965e-01" purity="2.7902789413928986e-02" nType="-99"/>
        </Node>
        <Node pos="r" depth="1" NCoef="0" IVar="-1" Cut="0.0000000000000000e+00" cType="1" res="-3.4918501973152161e-02" rms="3.5187005996704102e-01" purity="3.4151032567024231e-02" nType="-99"/>
      </Node>
    </BinaryTree>
    <BinaryTree type="DecisionTree" boostWeight="1.0000000000000000e+00" itree="33">
      <Node pos="s" depth="0" NCoef="0" IVar="26" Cut="4.1681003570556641e+00" cType="1" res="3.4104442596435547e-01" rms="1.6796058416366577e-01" purity="9.6988737583160400e-01" nType="0">
        <Node pos="l" depth="1" NCoef="0" IVar="27" Cut="4.4285712242126465e+00" cType="1" res="3.4788855910301208e-01" rms="1.4428170025348663e-01" purity="9.7808408737182617e-01" nType="0">
          <Node pos="l" depth="2" NCoef="0" IVar="-1" Cut="0.0000000000000000e+00" cType="1" res="4.4326074421405792e-02" rms="2.3668922483921051e-01" purity="9.3814182281494141e-01" nType="-99"/>
          <Node pos="r" depth="2" NCoef="0" IVar="-1" Cut="0.0000000000000000e+00" cType="1" res="5.0644151866436005e-02" rms="1.2272716313600540e-01" purity="9.8432838916778564e-01" nType="-99"/>
        </Node>
        <Node pos="r" depth="1" NCoef="0" IVar="8" Cut="2.3767556995153427e-02" cType="1" res="2.9272493720054626e-01" rms="2.7882531285285950e-01" purity="9.1201865673065186e-01" nType="0">
          <Node pos="l" depth="2" NCoef="0" IVar="-1" Cut="0.0000000000000000e+00" cType="1" res="3.0935060232877731e-02" rms="3.7189689278602600e-01" purity="8.3095371723175049e-01" nType="-99"/>
          <Node pos="r" depth="2" NCoef="0" IVar="-1" Cut="0.0000000000000000e+00" cType="1" res="4.8805657774209976e-02" rms="1.7258772253990173e-01" purity="9.6803474426269531e-01" nType="-99"/>
        </Node>
      </Node>
    </BinaryTree>
    <BinaryTree type="DecisionTree" boostWeight="1.0000000000000000e+00" itree="34">
      <Node pos="s" depth="0" NCoef="0" IVar="24" Cut="2.2469251632690430e+01" cType="1" res="3.4252631664276123e-01" rms="1.6353701055049896e-01" purity="2.0088249817490578e-02" nType="0">
        <Node pos="l" depth="1" NCoef="0" IVar="24" Cut="6.4121088981628418e+00" cType="1" res="3.4696793556213379e-01" rms="1.4349807798862457e-01" purity="1.4653258025646210e-02" nType="0">
          <Node pos="l" depth="2" NCoef="0" IVar="-1" Cut="0.0000000000000000e+00" cType="1" res="-3.9127342402935028e-02" rms="1.0917712748050690e-01" purity="7.6892240904271603e-03" nType="-99"/>
          <Node pos="r" depth="2" NCoef="0" IVar="-1" Cut="0.0000000000000000e+00" cType="1" res="-3.0224366113543510e-02" rms="2.5865399837493896e-01" purity="5.3065326064825058e-02" nType="-99"/>
        </Node>
        <Node pos="r" depth="1" NCoef="0" IVar="-1" Cut="0.0000000000000000e+00" cType="1" res="-2.1509988233447075e-02" rms="3.4577569365501404e-01" purity="1.0679133981466293e-01" nType="-99"/>
      </Node>
    </BinaryTree>
    <BinaryTree type="DecisionTree" boostWeight="1.0000000000000000e+00" itree="35">
      <Node pos="s" depth="0" NCoef="0" IVar="24" Cut="2.2469251632690430e+01" cType="1" res="3.4394890069961548e-01" rms="1.5983279049396515e-01" purity="8.2807345315814018e-03" nType="0">
        <Node pos="l" depth="1" NCoef="0" IVar="24" Cut="6.4170355796813965e+00" cType="1" res="3.4890902042388916e-01" rms="1.3710632920265198e-01" purity="6.6991848871111870e-03" nType="0">
          <Node pos="l" depth="2" NCoef="0" IVar="-1" Cut="0.0000000000000000e+00" cType="1" res="-3.9776816964149475e-02" rms="1.0622090101242065e-01" purity="4.3370509520173073e-03" nType="-99"/>
          <Node pos="r" depth="2" NCoef="0" IVar="-1" Cut="0.0000000000000000e+00" cType="1" res="-3.6746986210346222e-02" rms="2.4377056956291199e-01" purity="1.9781993702054024e-02" nType="-99"/>
        </Node>
        <Node pos="r" depth="1" NCoef="0" IVar="-1" Cut="0.0000000000000000e+00" cType="1" res="-3.4612454473972321e-02" rms="3.4846913814544678e-01" purity="3.2152842730283737e-02" nType="-99"/>
      </Node>
    </BinaryTree>
    <BinaryTree type="DecisionTree" boostWeight="1.0000000000000000e+00" itree="36">
      <Node pos="s" depth="0" NCoef="0" IVar="11" Cut="8.8124521076679230e-02" cType="1" res="3.2388854026794434e-01" rms="1.5988394618034363e-01" purity="9.7272884845733643e-01" nType="0">
        <Node pos="l" depth="1" NCoef="0" IVar="-1" Cut="0.0000000000000000e+00" cType="1" res="4.0444903075695038e-02" rms="2.7443480491638184e-01" purity="9.1620916128158569e-01" nType="-99"/>
        <Node pos="r" depth="1" NCoef="0" IVar="26" Cut="4.6548452377319336e+00" cType="1" res="3.2869568467140198e-01" rms="1.4068472385406494e-01" purity="9.7902256250381470e-01" nType="0">
          <Node pos="l" depth="2" NCoef="0" IVar="-1" Cut="0.0000000000000000e+00" cType="1" res="4.9015074968338013e-02" rms="1.1901659518480301e-01" purity="9.8520159721374512e-01" nType="-99"/>
          <Node pos="r" depth="2" NCoef="0" IVar="-1" Cut="0.0000000000000000e+00" cType="1" res="3.7709299474954605e-02" rms="3.0066424608230591e-01" purity="8.9624828100204468e-01" nType="-99"/>
        </Node>
      </Node>
    </BinaryTree>
    <BinaryTree type="DecisionTree" boostWeight="1.0000000000000000e+00" itree="37">
      <Node pos="s" depth="0" NCoef="0" IVar="8" Cut="3.8353908807039261e-02" cType="1" res="3.2308435440063477e-01" rms="1.6148978471755981e-01" purity="2.0684899762272835e-02" nType="0">
        <Node pos="l" depth="1" NCoef="0" IVar="8" Cut="1.2824166566133499e-02" cType="1" res="2.9606556892395020e-01" rms="2.3248231410980225e-01" purity="4.7098144888877869e-02" nType="0">
          <Node pos="l" depth="2" NCoef="0" IVar="-1" Cut="0.0000000000000000e+00" cType="1" res="-1.7571898177266121e-02" rms="3.2985845208168030e-01" purity="1.0467127710580826e-01" nType="-99"/>
          <Node pos="r" depth="2" NCoef="0" IVar="-1" Cut="0.0000000000000000e+00" cType="1" res="-3.4658402204513550e-02" rms="1.8015947937965393e-01" purity="2.6505775749683380e-02" nType="-99"/>
        </Node>
        <Node pos="r" depth="1" NCoef="0" IVar="19" Cut="8.6101837456226349e-02" cType="1" res="3.3951732516288757e-01" rms="9.1400012373924255e-02" purity="4.6202181838452816e-03" nType="0">
          <Node pos="l" depth="2" NCoef="0" IVar="-1" Cut="0.0000000000000000e+00" cType="1" res="-3.7573531270027161e-02" rms="1.6526913642883301e-01" purity="1.3663535006344318e-02" nType="-99"/>
          <Node pos="r" depth="2" NCoef="0" IVar="-1" Cut="0.0000000000000000e+00" cType="1" res="-3.9608657360076904e-02" rms="7.7628545463085175e-02" purity="3.5229509230703115e-03" nType="-99"/>
        </Node>
      </Node>
    </BinaryTree>
    <BinaryTree type="DecisionTree" boostWeight="1.0000000000000000e+00" itree="38">
      <Node pos="s" depth="0" NCoef="0" IVar="11" Cut="1.2833510339260101e-01" cType="1" res="3.2274773716926575e-01" rms="1.6284857690334320e-01" purity="8.9662596583366394e-03" nType="0">
        <Node pos="l" depth="1" NCoef="0" IVar="16" Cut="7.3069043457508087e-02" cType="1" res="2.9010450839996338e-01" rms="2.5058317184448242e-01" purity="2.3922074586153030e-02" nType="0">
          <Node pos="l" depth="2" NCoef="0" IVar="-1" Cut="0.0000000000000000e+00" cType="1" res="-3.3576067537069321e-02" rms="2.9552531242370605e-01" purity="3.0985169112682343e-02" nType="-99"/>
          <Node pos="r" depth="2" NCoef="0" IVar="-1" Cut="0.0000000000000000e+00" cType="1" res="-3.6789093166589737e-02" rms="1.7988143861293793e-01" purity="1.5600623562932014e-02" nType="-99"/>
        </Node>
        <Node pos="r" depth="1" NCoef="0" IVar="26" Cut="4.6398954391479492e+00" cType="1" res="3.3107376098632812e-01" rms="1.3010355830192566e-01" purity="5.1516257226467133e-03" nType="0">
          <Node pos="l" depth="2" NCoef="0" IVar="-1" Cut="0.0000000000000000e+00" cType="1" res="-3.9308831095695496e-02" rms="1.1086107045412064e-01" purity="4.1228206828236580e-03" nType="-99"/>
          <Node pos="r" depth="2" NCoef="0" IVar="-1" Cut="0.0000000000000000e+00" cType="1" res="-3.6251399666070938e-02" rms="2.7615311741828918e-01" purity="1.8927445635199547e-02" nType="-99"/>
        </Node>
      </Node>
    </BinaryTree>
    <BinaryTree type="DecisionTree" boostWeight="1.0000000000000000e+00" itree="39">
      <Node pos="s" depth="0" NCoef="0" IVar="24" Cut="1.4258659362792969e+01" cType="1" res="3.0459240078926086e-01" rms="1.6037191450595856e-01" purity="9.7248685359954834e-01" nType="0">
        <Node pos="l" depth="1" NCoef="0" IVar="24" Cut="3.3928234577178955e+00" cType="1" res="3.1100741028785706e-01" rms="1.2975065410137177e-01" purity="9.8249071836471558e-01" nType="0">
          <Node pos="l" depth="2" NCoef="0" IVar="-1" Cut="0.0000000000000000e+00" cType="1" res="4.8214856535196304e-02" rms="8.9591905474662781e-02" purity="9.9184161424636841e-01" nType="-99"/>
          <Node pos="r" depth="2" NCoef="0" IVar="-1" Cut="0.0000000000000000e+00" cType="1" res="4.4318716973066330e-02" rms="1.9082692265510559e-01" purity="9.6135115623474121e-01" nType="-99"/>
        </Node>
        <Node pos="r" depth="1" NCoef="0" IVar="-1" Cut="0.0000000000000000e+00" cType="1" res="3.4912623465061188e-02" rms="3.2682961225509644e-01" purity="8.7644904851913452e-01" nType="-99"/>
      </Node>
    </BinaryTree>
    <BinaryTree type="DecisionTree" boostWeight="1.0000000000000000e+00" itree="40">
      <Node pos="s" depth="0" NCoef="0" IVar="13" Cut="2.9047617912292480e+00" cType="1" res="3.0574476718902588e-01" rms="1.5687200427055359e-01" purity="1.9111227244138718e-02" nType="0">
        <Node pos="l" depth="1" NCoef="0" IVar="4" Cut="3.1142806634306908e-02" cType="1" res="2.8305563330650330e-01" rms="2.1944993734359741e-01" purity="4.1469704359769821e-02" nType="0">
          <Node pos="l" depth="2" NCoef="0" IVar="-1" Cut="0.0000000000000000e+00" cType="1" res="-2.5632249191403389e-02" rms="2.6854014396667480e-01" purity="6.3033305108547211e-02" nType="-99"/>
          <Node pos="r" depth="2" NCoef="0" IVar="-1" Cut="0.0000000000000000e+00" cType="1" res="-3.3571634441614151e-02" rms="1.7935022711753845e-01" purity="2.7665197849273682e-02" nType="-99"/>
        </Node>
        <Node pos="r" depth="1" NCoef="0" IVar="8" Cut="4.6835809946060181e-02" cType="1" res="3.1409913301467896e-01" rms="1.2521307170391083e-01" purity="1.0878594592213631e-02" nType="0">
          <Node pos="l" depth="2" NCoef="0" IVar="-1" Cut="0.0000000000000000e+00" cType="1" res="-3.5298384726047516e-02" rms="1.6479264199733734e-01" purity="2.0772818475961685e-02" nType="-99"/>
          <Node pos="r" depth="2" NCoef="0" IVar="-1" Cut="0.0000000000000000e+00" cType="1" res="-3.9239238947629929e-02" rms="7.8799881041049957e-02" purity="2.8021268080919981e-03" nType="-99"/>
        </Node>
      </Node>
    </BinaryTree>
    <BinaryTree type="DecisionTree" boostWeight="1.0000000000000000e+00" itree="41">
      <Node pos="s" depth="0" NCoef="0" IVar="26" Cut="4.1286334991455078e+00" cType="1" res="3.0478087067604065e-01" rms="1.5950609743595123e-01" purity="7.4945534579455853e-03" nType="0">
        <Node pos="l" depth="1" NCoef="0" IVar="24" Cut="1.3577337265014648e+01" cType="1" res="3.1053760647773743e-01" rms="1.3669075071811676e-01" purity="6.9569270126521587e-03" nType="0">
          <Node pos="l" depth="2" NCoef="0" IVar="-1" Cut="0.0000000000000000e+00" cType="1" res="-3.8573533296585083e-02" rms="1.0845322161912918e-01" purity="5.0225835293531418e-03" nType="-99"/>
          <Node pos="r" depth="2" NCoef="0" IVar="-1" Cut="0.0000000000000000e+00" cType="1" res="-3.3449299633502960e-02" rms="3.1007513403892517e-01" purity="2.9573298990726471e-02" nType="-99"/>
        </Node>
        <Node pos="r" depth="1" NCoef="0" IVar="8" Cut="2.8456527739763260e-02" cType="1" res="2.6532286405563354e-01" rms="2.6453301310539246e-01" purity="1.1179557070136070e-02" nType="0">
          <Node pos="l" depth="2" NCoef="0" IVar="-1" Cut="0.0000000000000000e+00" cType="1" res="-3.6531072109937668e-02" rms="3.4499281644821167e-01" purity="1.5625000000000000e-02" nType="-99"/>
          <Node pos="r" depth="2" NCoef="0" IVar="-1" Cut="0.0000000000000000e+00" cType="1" res="-3.8167241960763931e-02" rms="1.5044814348220825e-01" purity="7.2805141098797321e-03" nType="-99"/>
        </Node>
      </Node>
    </BinaryTree>
    <BinaryTree type="DecisionTree" boostWeight="1.0000000000000000e+00" itree="42">
      <Node pos="s" depth="0" NCoef="0" IVar="27" Cut="4.9047617912292480e+00" cType="1" res="2.8611692786216736e-01" rms="1.6131900250911713e-01" purity="9.7210925817489624e-01" nType="0">
        <Node pos="l" depth="1" NCoef="0" IVar="11" Cut="1.8591623008251190e-01" cType="1" res="2.4572877585887909e-01" rms="2.5262373685836792e-01" purity="9.2806434631347656e-01" nType="0">
          <Node pos="l" depth="2" NCoef="0" IVar="-1" Cut="0.0000000000000000e+00" cType="1" res="3.3639095723628998e-02" rms="2.9611262679100037e-01" purity="8.9829021692276001e-01" nType="-99"/>
          <Node pos="r" depth="2" NCoef="0" IVar="-1" Cut="0.0000000000000000e+00" cType="1" res="4.2815096676349640e-02" rms="1.8474884331226349e-01" purity="9.6298199892044067e-01" nType="-99"/>
        </Node>
        <Node pos="r" depth="1" NCoef="0" IVar="26" Cut="4.0773067474365234e+00" cType="1" res="2.9176971316337585e-01" rms="1.4308640360832214e-01" purity="9.7827380895614624e-01" nType="0">
          <Node pos="l" depth="2" NCoef="0" IVar="-1" Cut="0.0000000000000000e+00" cType="1" res="4.6141851693391800e-02" rms="1.1906243860721588e-01" purity="9.8517650365829468e-01" nType="-99"/>
          <Node pos="r" depth="2" NCoef="0" IVar="-1" Cut="0.0000000000000000e+00" cType="1" res="4.0238857269287109e-02" rms="2.3450876772403717e-01" purity="9.3946039676666260e-01" nType="-99"/>
        </Node>
      </Node>
    </BinaryTree>
    <BinaryTree type="DecisionTree" boostWeight="1.0000000000000000e+00" itree="43">
      <Node pos="s" depth="0" NCoef="0" IVar="11" Cut="1.2780065834522247e-01" cType="1" res="2.8578495979309082e-01" rms="1.6203524172306061e-01" purity="1.9627681002020836e-02" nType="0">
        <Node pos="l" depth="1" NCoef="0" IVar="8" Cut="4.2137894779443741e-02" cType="1" res="2.5837478041648865e-01" rms="2.4324487149715424e-01" purity="4.6534936875104904e-02" nType="0">
          <Node pos="l" depth="2" NCoef="0" IVar="-1" Cut="0.0000000000000000e+00" cType="1" res="-2.2074567154049873e-02" rms="2.9548504948616028e-01" purity="7.5809426605701447e-02" nType="-99"/>
          <Node pos="r" depth="2" NCoef="0" IVar="-1" Cut="0.0000000000000000e+00" cType="1" res="-3.6880880594253540e-02" rms="1.5289977192878723e-01" purity="1.1616954579949379e-02" nType="-99"/>
        </Node>
        <Node pos="r" depth="1" NCoef="0" IVar="26" Cut="4.1677298545837402e+00" cType="1" res="2.9271844029426575e-01" rms="1.3301122188568115e-01" purity="1.2821441516280174e-02" nType="0">
          <Node pos="l" depth="2" NCoef="0" IVar="-1" Cut="0.0000000000000000e+00" cType="1" res="-3.7606939673423767e-02" rms="1.0913948714733124e-01" purity="7.6398923993110657e-03" nType="-99"/>
          <Node pos="r" depth="2" NCoef="0" IVar="-1" Cut="0.0000000000000000e+00" cType="1" res="-2.7992727234959602e-02" rms="2.4010476469993591e-01" purity="4.9779087305068970e-02" nType="-99"/>
        </Node>
      </Node>
    </BinaryTree>
    <BinaryTree type="DecisionTree" boostWeight="1.0000000000000000e+00" itree="44">
      <Node pos="s" depth="0" NCoef="0" IVar="8" Cut="3.8349345326423645e-02" cType="1" res="2.8712737560272217e-01" rms="1.5888817608356476e-01" purity="8.0220894888043404e-03" nType="0">
        <Node pos="l" depth="1" NCoef="0" IVar="8" Cut="1.2820736505091190e-02" cType="1" res="2.6497808098793030e-01" rms="2.2322283685207367e-01" purity="1.2863449752330780e-02" nType="0">
          <Node pos="l" depth="2" NCoef="0" IVar="-1" Cut="0.0000000000000000e+00" cType="1" res="-3.4645833075046539e-02" rms="3.1378194689750671e-01" purity="1.9778940826654434e-02" nType="-99"/>
          <Node pos="r" depth="2" NCoef="0" IVar="-1" Cut="0.0000000000000000e+00" cType="1" res="-3.6854896694421768e-02" rms="1.7679546773433685e-01" purity="1.0412370786070824e-02" nType="-99"/>
        </Node>
        <Node pos="r" depth="1" NCoef="0" IVar="19" Cut="8.8404789566993713e-02" cType="1" res="3.0081039667129517e-01" rms="9.7819529473781586e-02" purity="5.0312690436840057e-03" nType="0">
          <Node pos="l" depth="2" NCoef="0" IVar="-1" Cut="0.0000000000000000e+00" cType="1" res="-3.3629927784204483e-02" rms="1.9344440102577209e-01" purity="2.3245614022016525e-02" nType="-99"/>
          <Node pos="r" depth="2" NCoef="0" IVar="-1" Cut="0.0000000000000000e+00" cType="1" res="-3.8658924400806427e-02" rms="7.8424550592899323e-02" purity="2.8440512251108885e-03" nType="-99"/>
        </Node>
      </Node>
    </BinaryTree>
    <BinaryTree type="DecisionTree" boostWeight="1.0000000000000000e+00" itree="45">
      <Node pos="s" depth="0" NCoef="0" IVar="24" Cut="2.2469251632690430e+01" cType="1" res="2.7016267180442810e-01" rms="1.5814195573329926e-01" purity="9.7313868999481201e-01" nType="0">
        <Node pos="l" depth="1" NCoef="0" IVar="24" Cut="1.0696850776672363e+01" cType="1" res="2.7489355206489563e-01" rms="1.3572756946086884e-01" purity="9.8068743944168091e-01" nType="0">
          <Node pos="l" depth="2" NCoef="0" IVar="-1" Cut="0.0000000000000000e+00" cType="1" res="4.4748663902282715e-02" rms="1.1940713971853256e-01" purity="9.8523765802383423e-01" nType="-99"/>
          <Node pos="r" depth="2" NCoef="0" IVar="-1" Cut="0.0000000000000000e+00" cType="1" res="3.6177046597003937e-02" rms="2.7330645918846130e-01" purity="9.1735160350799561e-01" nType="-99"/>
        </Node>
        <Node pos="r" depth="1" NCoef="0" IVar="-1" Cut="0.0000000000000000e+00" cType="1" res="2.8931565582752228e-02" rms="3.5135647654533386e-01" purity="8.5346919298171997e-01" nType="-99"/>
      </Node>
    </BinaryTree>
    <BinaryTree type="DecisionTree" boostWeight="1.0000000000000000e+00" itree="46">
      <Node pos="s" depth="0" NCoef="0" IVar="24" Cut="1.8129013061523438e+01" cType="1" res="2.6971316337585449e-01" rms="1.5961074829101562e-01" purity="1.8763413652777672e-02" nType="0">
        <Node pos="l" depth="1" NCoef="0" IVar="24" Cut="6.9061346054077148e+00" cType="1" res="2.7497145533561707e-01" rms="1.3409340381622314e-01" purity="1.2311643920838833e-02" nType="0">
          <Node pos="l" depth="2" NCoef="0" IVar="-1" Cut="0.0000000000000000e+00" cType="1" res="-3.6930300295352936e-02" rms="1.0946700721979141e-01" purity="8.0861570313572884e-03" nType="-99"/>
          <Node pos="r" depth="2" NCoef="0" IVar="-1" Cut="0.0000000000000000e+00" cType="1" res="-2.9269102960824966e-02" rms="2.4349232017993927e-01" purity="4.2044311761856079e-02" nType="-99"/>
        </Node>
        <Node pos="r" depth="1" NCoef="0" IVar="-1" Cut="0.0000000000000000e+00" cType="1" res="-1.8035318702459335e-02" rms="3.3800807595252991e-01" purity="9.9180005490779877e-02" nType="-99"/>
      </Node>
    </BinaryTree>
    <BinaryTree type="DecisionTree" boostWeight="1.0000000000000000e+00" itree="47">
      <Node pos="s" depth="0" NCoef="0" IVar="13" Cut="2.6190476417541504e+00" cType="1" res="2.6883238554000854e-01" rms="1.6159516572952271e-01" purity="8.2287834957242012e-03" nType="0">
        <Node pos="l" depth="1" NCoef="0" IVar="16" Cut="6.5260678529739380e-02" cType="1" res="2.4468982219696045e-01" rms="2.2700189054012299e-01" purity="1.3105166144669056e-02" nType="0">
          <Node pos="l" depth="2" NCoef="0" IVar="-1" Cut="0.0000000000000000e+00" cType="1" res="-3.3871993422508240e-02" rms="3.0521845817565918e-01" purity="2.0527860149741173e-02" nType="-99"/>
          <Node pos="r" depth="2" NCoef="0" IVar="-1" Cut="0.0000000000000000e+00" cType="1" res="-3.6710489541292191e-02" rms="1.5927892923355103e-01" purity="8.7583716958761215e-03" nType="-99"/>
        </Node>
        <Node pos="r" depth="1" NCoef="0" IVar="8" Cut="4.5569024980068207e-02" cType="1" res="2.7764996886253357e-01" rms="1.2860552966594696e-01" purity="6.4477846026420593e-03" nType="0">
          <Node pos="l" depth="2" NCoef="0" IVar="-1" Cut="0.0000000000000000e+00" cType="1" res="-3.6233469843864441e-02" rms="1.7653201520442963e-01" purity="1.0732150636613369e-02" nType="-99"/>
          <Node pos="r" depth="2" NCoef="0" IVar="-1" Cut="0.0000000000000000e+00" cType="1" res="-3.8123622536659241e-02" rms="7.1556553244590759e-02" purity="3.1501573976129293e-03" nType="-99"/>
        </Node>
      </Node>
    </BinaryTree>
    <BinaryTree type="DecisionTree" boostWeight="1.0000000000000000e+00" itree="48">
      <Node pos="s" depth="0" NCoef="0" IVar="11" Cut="1.2537057697772980e-01" cType="1" res="2.5415876507759094e-01" rms="1.5741813182830811e-01" purity="9.7326171398162842e-01" nType="0">
        <Node pos="l" depth="1" NCoef="0" IVar="16" Cut="7.3069043457508087e-02" cType="1" res="2.2543115913867950e-01" rms="2.4502255022525787e-01" purity="9.3317490816116333e-01" nType="0">
          <Node pos="l" depth="2" NCoef="0" IVar="-1" Cut="0.0000000000000000e+00" cType="1" res="3.2416556030511856e-02" rms="2.9003807902336121e-01" purity="9.0392154455184937e-01" nType="-99"/>
          <Node pos="r" depth="2" NCoef="0" IVar="-1" Cut="0.0000000000000000e+00" cType="1" res="4.1024573147296906e-02" rms="1.7813508212566376e-01" purity="9.6618205308914185e-01" nType="-99"/>
        </Node>
        <Node pos="r" depth="1" NCoef="0" IVar="27" Cut="4.6190476417541504e+00" cType="1" res="2.6113978028297424e-01" rms="1.2634789943695068e-01" purity="9.8300313949584961e-01" nType="0">
          <Node pos="l" depth="2" NCoef="0" IVar="-1" Cut="0.0000000000000000e+00" cType="1" res="3.8658957928419113e-02" rms="2.0667995512485504e-01" purity="9.5272207260131836e-01" nType="-99"/>
          <Node pos="r" depth="2" NCoef="0" IVar="-1" Cut="0.0000000000000000e+00" cType="1" res="4.3930422514677048e-02" rms="1.1347920447587967e-01" purity="9.8639589548110962e-01" nType="-99"/>
        </Node>
      </Node>
    </BinaryTree>
    <BinaryTree type="DecisionTree" boostWeight="1.0000000000000000e+00" itree="49">
      <Node pos="s" depth="0" NCoef="0" IVar="24" Cut="2.2469251632690430e+01" cType="1" res="2.5291886925697327e-01" rms="1.6104367375373840e-01" purity="1.9815973937511444e-02" nType="0">
        <Node pos="l" depth="1" NCoef="0" IVar="24" Cut="3.2090551853179932e+00" cType="1" res="2.5714993476867676e-01" rms="1.4011347293853760e-01" purity="1.4531853608787060e-02" nType="0">
          <Node pos="l" depth="2" NCoef="0" IVar="-1" Cut="0.0000000000000000e+00" cType="1" res="-3.7582684308290482e-02" rms="8.3468064665794373e-02" purity="3.9009258616715670e-03" nType="-99"/>
          <Node pos="r" depth="2" NCoef="0" IVar="-1" Cut="0.0000000000000000e+00" cType="1" res="-2.9787193983793259e-02" rms="2.0711842179298401e-01" purity="3.4476678818464279e-02" nType="-99"/>
        </Node>
        <Node pos="r" depth="1" NCoef="0" IVar="-1" Cut="0.0000000000000000e+00" cType="1" res="-1.6614923253655434e-02" rms="3.4837710857391357e-01" purity="1.0385178029537201e-01" nType="-99"/>
      </Node>
    </BinaryTree>
    <BinaryTree type="DecisionTree" boostWeight="1.0000000000000000e+00" itree="50">
      <Node pos="s" depth="0" NCoef="0" IVar="13" Cut="2.5238094329833984e+00" cType="1" res="2.5360631942749023e-01" rms="1.5958346426486969e-01" purity="8.8173225522041321e-03" nType="0">
        <Node pos="l" depth="1" NCoef="0" IVar="4" Cut="2.5528660044074059e-02" cType="1" res="2.3222933709621429e-01" rms="2.2103177011013031e-01" purity="1.2977343052625656e-02" nType="0">
          <Node pos="l" depth="2" NCoef="0" IVar="-1" Cut="0.0000000000000000e+00" cType="1" res="-3.2925639301538467e-02" rms="2.7952092885971069e-01" purity="2.1512180566787720e-02" nType="-99"/>
          <Node pos="r" depth="2" NCoef="0" IVar="-1" Cut="0.0000000000000000e+00" cType="1" res="-3.6314304918050766e-02" rms="1.8260796368122101e-01" purity="8.6538465693593025e-03" nType="-99"/>
        </Node>
        <Node pos="r" depth="1" NCoef="0" IVar="11" Cut="1.3038164377212524e-01" cType="1" res="2.6158428192138672e-01" rms="1.2846845388412476e-01" purity="7.2647877968847752e-03" nType="0">
          <Node pos="l" depth="2" NCoef="0" IVar="-1" Cut="0.0000000000000000e+00" cType="1" res="-3.3386372029781342e-02" rms="2.0697647333145142e-01" purity="1.9821889698505402e-02" nType="-99"/>
          <Node pos="r" depth="2" NCoef="0" IVar="-1" Cut="0.0000000000000000e+00" cType="1" res="-3.7142369896173477e-02" rms="1.1052250862121582e-01" purity="5.2512781694531441e-03" nType="-99"/>
        </Node>
      </Node>
    </BinaryTree>
    <BinaryTree type="DecisionTree" boostWeight="1.0000000000000000e+00" itree="51">
      <Node pos="s" depth="0" NCoef="0" IVar="11" Cut="8.8551275432109833e-02" cType="1" res="2.3844859004020691e-01" rms="1.5851758420467377e-01" purity="9.7296279668807983e-01" nType="0">
        <Node pos="l" depth="1" NCoef="0" IVar="-1" Cut="0.0000000000000000e+00" cType="1" res="3.1728196889162064e-02" rms="2.8233140707015991e-01" purity="9.0985262393951416e-01" nType="-99"/>
        <Node pos="r" depth="1" NCoef="0" IVar="8" Cut="6.0250923037528992e-02" cType="1" res="2.4355155229568481e-01" rms="1.3702729344367981e-01" purity="9.8000645637512207e-01" nType="0">
          <Node pos="l" depth="2" NCoef="0" IVar="-1" Cut="0.0000000000000000e+00" cType="1" res="4.0007837116718292e-02" rms="1.7302271723747253e-01" purity="9.6771246194839478e-01" nType="-99"/>
          <Node pos="r" depth="2" NCoef="0" IVar="-1" Cut="0.0000000000000000e+00" cType="1" res="4.4001758098602295e-02" rms="7.7635236084461212e-02" purity="9.9383348226547241e-01" nType="-99"/>
        </Node>
      </Node>
    </BinaryTree>
    <BinaryTree type="DecisionTree" boostWeight="1.0000000000000000e+00" itree="52">
      <Node pos="s" depth="0" NCoef="0" IVar="26" Cut="5.0024085044860840e+00" cType="1" res="2.3950265347957611e-01" rms="1.5596337616443634e-01" purity="1.8094962462782860e-02" nType="0">
        <Node pos="l" depth="1" NCoef="0" IVar="24" Cut="1.7157394409179688e+01" cType="1" res="2.4429114162921906e-01" rms="1.3689680397510529e-01" purity="1.2764138169586658e-02" nType="0">
          <Node pos="l" depth="2" NCoef="0" IVar="-1" Cut="0.0000000000000000e+00" cType="1" res="-3.6048334091901779e-02" rms="1.1357343196868896e-01" purity="8.1471055746078491e-03" nType="-99"/>
          <Node pos="r" depth="2" NCoef="0" IVar="-1" Cut="0.0000000000000000e+00" cType="1" res="-2.1168243139982224e-02" rms="3.1296941637992859e-01" purity="7.7345535159111023e-02" nType="-99"/>
        </Node>
        <Node pos="r" depth="1" NCoef="0" IVar="-1" Cut="0.0000000000000000e+00" cType="1" res="-9.7339339554309845e-03" rms="3.4393331408500671e-01" purity="1.1551339179277420e-01" nType="-99"/>
      </Node>
    </BinaryTree>
    <BinaryTree type="DecisionTree" boostWeight="1.0000000000000000e+00" itree="53">
      <Node pos="s" depth="0" NCoef="0" IVar="26" Cut="4.9317631721496582e+00" cType="1" res="2.3906719684600830e-01" rms="1.5724009275436401e-01" purity="7.1799661964178085e-03" nType="0">
        <Node pos="l" depth="1" NCoef="0" IVar="24" Cut="1.7157394409179688e+01" cType="1" res="2.4406385421752930e-01" rms="1.3754728436470032e-01" purity="6.5440176986157894e-03" nType="0">
          <Node pos="l" depth="2" NCoef="0" IVar="-1" Cut="0.0000000000000000e+00" cType="1" res="-3.6817286163568497e-02" rms="1.1383577436208725e-01" purity="4.9213897436857224e-03" nType="-99"/>
          <Node pos="r" depth="2" NCoef="0" IVar="-1" Cut="0.0000000000000000e+00" cType="1" res="-3.0797420069575310e-02" rms="3.1783398985862732e-01" purity="2.9716981574892998e-02" nType="-99"/>
        </Node>
        <Node pos="r" depth="1" NCoef="0" IVar="-1" Cut="0.0000000000000000e+00" cType="1" res="-3.3629190176725388e-02" rms="3.4285697340965271e-01" purity="1.8220793455839157e-02" nType="-99"/>
      </Node>
    </BinaryTree>
    <BinaryTree type="DecisionTree" boostWeight="1.0000000000000000e+00" itree="54">
      <Node pos="s" depth="0" NCoef="0" IVar="24" Cut="2.1286878585815430e+01" cType="1" res="2.2142001986503601e-01" rms="1.6540887951850891e-01" purity="9.7047072649002075e-01" nType="0">
        <Node pos="l" depth="1" NCoef="0" IVar="24" Cut="6.0818529129028320e+00" cType="1" res="2.2585922479629517e-01" rms="1.4425833523273468e-01" purity="9.7805500030517578e-01" nType="0">
          <Node pos="l" depth="2" NCoef="0" IVar="-1" Cut="0.0000000000000000e+00" cType="1" res="4.1797712445259094e-02" rms="1.1212366074323654e-01" purity="9.8705095052719116e-01" nType="-99"/>
          <Node pos="r" depth="2" NCoef="0" IVar="-1" Cut="0.0000000000000000e+00" cType="1" res="3.3443629741668701e-02" rms="2.5186944007873535e-01" purity="9.3029493093490601e-01" nType="-99"/>
        </Node>
        <Node pos="r" depth="1" NCoef="0" IVar="-1" Cut="0.0000000000000000e+00" cType="1" res="2.4117117747664452e-02" rms="3.5324013233184814e-01" purity="8.5171103477478027e-01" nType="-99"/>
      </Node>
    </BinaryTree>
    <BinaryTree type="DecisionTree" boostWeight="1.0000000000000000e+00" itree="55">
      <Node pos="s" depth="0" NCoef="0" IVar="8" Cut="4.2224105447530746e-02" cType="1" res="2.2588583827018738e-01" rms="1.5302515029907227e-01" purity="1.8285812810063362e-02" nType="0">
        <Node pos="l" depth="1" NCoef="0" IVar="8" Cut="1.2172657996416092e-02" cType="1" res="2.0575813949108124e-01" rms="2.1622733771800995e-01" purity="3.9034627377986908e-02" nType="0">
          <Node pos="l" depth="2" NCoef="0" IVar="-1" Cut="0.0000000000000000e+00" cType="1" res="-1.0591625235974789e-02" rms="3.2282996177673340e-01" purity="1.0046511888504028e-01" nType="-99"/>
          <Node pos="r" depth="2" NCoef="0" IVar="-1" Cut="0.0000000000000000e+00" cType="1" res="-3.2178122550249100e-02" rms="1.6882513463497162e-01" purity="2.1138211712241173e-02" nType="-99"/>
        </Node>
        <Node pos="r" depth="1" NCoef="0" IVar="19" Cut="8.1025466322898865e-02" cType="1" res="2.4004416167736053e-01" rms="8.0715797841548920e-02" purity="3.6905815359205008e-03" nType="0">
          <Node pos="l" depth="2" NCoef="0" IVar="-1" Cut="0.0000000000000000e+00" cType="1" res="-3.3774089068174362e-02" rms="1.6273486614227295e-01" purity="1.5649452805519104e-02" nType="-99"/>
          <Node pos="r" depth="2" NCoef="0" IVar="-1" Cut="0.0000000000000000e+00" cType="1" res="-3.7344060838222504e-02" rms="6.6454023122787476e-02" purity="2.4449878837913275e-03" nType="-99"/>
        </Node>
      </Node>
    </BinaryTree>
    <BinaryTree type="DecisionTree" boostWeight="1.0000000000000000e+00" itree="56">
      <Node pos="s" depth="0" NCoef="0" IVar="25" Cut="2.5485387444496155e-01" cType="1" res="2.2348862886428833e-01" rms="1.6002236306667328e-01" purity="8.3161294460296631e-03" nType="0">
        <Node pos="l" depth="1" NCoef="0" IVar="27" Cut="5.2857141494750977e+00" cType="1" res="1.8864066898822784e-01" rms="2.6298534870147705e-01" purity="3.0612245202064514e-02" nType="0">
          <Node pos="l" depth="2" NCoef="0" IVar="-1" Cut="0.0000000000000000e+00" cType="1" res="-2.9160264879465103e-02" rms="2.9118269681930542e-01" purity="3.0809858813881874e-02" nType="-99"/>
          <Node pos="r" depth="2" NCoef="0" IVar="-1" Cut="0.0000000000000000e+00" cType="1" res="-2.9197946190834045e-02" rms="2.1849696338176727e-01" purity="3.0355097725987434e-02" nType="-99"/>
        </Node>
        <Node pos="r" depth="1" NCoef="0" IVar="27" Cut="4.7142858505249023e+00" cType="1" res="2.2809860110282898e-01" rms="1.4022675156593323e-01" purity="5.3666085004806519e-03" nType="0">
          <Node pos="l" depth="2" NCoef="0" IVar="-1" Cut="0.0000000000000000e+00" cType="1" res="-3.5724245011806488e-02" rms="2.2643122076988220e-01" purity="7.6266014948487282e-03" nType="-99"/>
          <Node pos="r" depth="2" NCoef="0" IVar="-1" Cut="0.0000000000000000e+00" cType="1" res="-3.6394409835338593e-02" rms="1.2529139220714569e-01" purity="5.0931908190250397e-03" nType="-99"/>
        </Node>
      </Node>
    </BinaryTree>
    <BinaryTree type="DecisionTree" boostWeight="1.0000000000000000e+00" itree="57">
      <Node pos="s" depth="0" NCoef="0" IVar="24" Cut="1.9747388839721680e+01" cType="1" res="2.1086889505386353e-01" rms="1.5754674375057220e-01" purity="9.7324109077453613e-01" nType="0">
        <Node pos="l" depth="1" NCoef="0" IVar="24" Cut="3.7537181377410889e+00" cType="1" res="2.1552194654941559e-01" rms="1.3255006074905396e-01" purity="9.8156636953353882e-01" nType="0">
          <Node pos="l" depth="2" NCoef="0" IVar="-1" Cut="0.0000000000000000e+00" cType="1" res="4.1674885898828506e-02" rms="9.1999746859073639e-02" purity="9.9133843183517456e-01" nType="-99"/>
          <Node pos="r" depth="2" NCoef="0" IVar="-1" Cut="0.0000000000000000e+00" cType="1" res="3.6392793059349060e-02" rms="1.9938987493515015e-01" purity="9.5743310451507568e-01" nType="-99"/>
        </Node>
        <Node pos="r" depth="1" NCoef="0" IVar="-1" Cut="0.0000000000000000e+00" cType="1" res="2.4183951318264008e-02" rms="3.4360614418983459e-01" purity="8.6136555671691895e-01" nType="-99"/>
      </Node>
    </BinaryTree>
    <BinaryTree type="DecisionTree" boostWeight="1.0000000000000000e+00" itree="58">
      <Node pos="s" depth="0" NCoef="0" IVar="27" Cut="4.7142858505249023e+00" cType="1" res="2.0990765094757080e-01" rms="1.6015286743640900e-01" purity="1.9255602732300758e-02" nType="0">
        <Node pos="l" depth="1" NCoef="0" IVar="26" Cut="2.2522182464599609e+00" cType="1" res="1.7549595236778259e-01" rms="2.4393692612648010e-01" purity="5.5386774241924286e-02" nType="0">
          <Node pos="l" depth="2" NCoef="0" IVar="-1" Cut="0.0000000000000000e+00" cType="1" res="-2.9095476493239403e-02" rms="1.9832521677017212e-01" purity="2.9439695179462433e-02" nType="-99"/>
          <Node pos="r" depth="2" NCoef="0" IVar="-1" Cut="0.0000000000000000e+00" cType="1" res="-1.3473650440573692e-02" rms="2.7895578742027283e-01" purity="8.0533824861049652e-02" nType="-99"/>
        </Node>
        <Node pos="r" depth="1" NCoef="0" IVar="26" Cut="3.6601247787475586e+00" cType="1" res="2.1472470462322235e-01" rms="1.4394676685333252e-01" purity="1.4197854325175285e-02" nType="0">
          <Node pos="l" depth="2" NCoef="0" IVar="-1" Cut="0.0000000000000000e+00" cType="1" res="-3.5387579351663589e-02" rms="1.1784906685352325e-01" purity="7.8567350283265114e-03" nType="-99"/>
          <Node pos="r" depth="2" NCoef="0" IVar="-1" Cut="0.0000000000000000e+00" cType="1" res="-2.8207944706082344e-02" rms="2.0092223584651947e-01" purity="3.2755300402641296e-02" nType="-99"/>
        </Node>
      </Node>
    </BinaryTree>
    <BinaryTree type="DecisionTree" boostWeight="1.0000000000000000e+00" itree="59">
      <Node pos="s" depth="0" NCoef="0" IVar="26" Cut="4.1286334991455078e+00" cType="1" res="2.0909771323204041e-01" rms="1.6236464679241180e-01" purity="8.9874695986509323e-03" nType="0">
        <Node pos="l" depth="1" NCoef="0" IVar="11" Cut="8.4565453231334686e-02" cType="1" res="2.1480511128902435e-01" rms="1.3964571058750153e-01" purity="7.8805340453982353e-03" nType="0">
          <Node pos="l" depth="2" NCoef="0" IVar="-1" Cut="0.0000000000000000e+00" cType="1" res="-2.8110271319746971e-02" rms="2.6009714603424072e-01" purity="3.2223027199506760e-02" nType="-99"/>
          <Node pos="r" depth="2" NCoef="0" IVar="-1" Cut="0.0000000000000000e+00" cType="1" res="-3.5891193896532059e-02" rms="1.2047106027603149e-01" purity="5.4302271455526352e-03" nType="-99"/>
        </Node>
        <Node pos="r" depth="1" NCoef="0" IVar="8" Cut="2.8359664604067802e-02" cType="1" res="1.7091223597526550e-01" rms="2.6569196581840515e-01" purity="1.6393441706895828e-02" nType="0">
          <Node pos="l" depth="2" NCoef="0" IVar="-1" Cut="0.0000000000000000e+00" cType="1" res="-3.1774669885635376e-02" rms="3.4549027681350708e-01" purity="2.0418327301740646e-02" nType="-99"/>
          <Node pos="r" depth="2" NCoef="0" IVar="-1" Cut="0.0000000000000000e+00" cType="1" res="-3.3544804900884628e-02" rms="1.6705177724361420e-01" purity="1.3168395496904850e-02" nType="-99"/>
        </Node>
      </Node>
    </BinaryTree>
    <BinaryTree type="DecisionTree" boostWeight="1.0000000000000000e+00" itree="60">
      <Node pos="s" depth="0" NCoef="0" IVar="26" Cut="4.0293669700622559e+00" cType="1" res="1.9631808996200562e-01" rms="1.6203568875789642e-01" purity="9.7158843278884888e-01" nType="0">
        <Node pos="l" depth="1" NCoef="0" IVar="25" Cut="3.0004018545150757e-01" cType="1" res="2.0254562795162201e-01" rms="1.3758835196495056e-01" purity="9.7990715503692627e-01" nType="0">
          <Node pos="l" depth="2" NCoef="0" IVar="-1" Cut="0.0000000000000000e+00" cType="1" res="3.3229433000087738e-02" rms="2.2630277276039124e-01" purity="9.4380080699920654e-01" nType="-99"/>
          <Node pos="r" depth="2" NCoef="0" IVar="-1" Cut="0.0000000000000000e+00" cType="1" res="4.0551971644163132e-02" rms="1.0437049716711044e-01" purity="9.8870629072189331e-01" nType="-99"/>
        </Node>
        <Node pos="r" depth="1" NCoef="0" IVar="27" Cut="6.5714287757873535e+00" cType="1" res="1.5941175818443298e-01" rms="2.6090973615646362e-01" purity="9.2228913307189941e-01" nType="0">
          <Node pos="l" depth="2" NCoef="0" IVar="-1" Cut="0.0000000000000000e+00" cType="1" res="1.8175443634390831e-02" rms="3.3396452665328979e-01" purity="8.6141163110733032e-01" nType="-99"/>
          <Node pos="r" depth="2" NCoef="0" IVar="-1" Cut="0.0000000000000000e+00" cType="1" res="3.6661989986896515e-02" rms="1.9079104065895081e-01" purity="9.6117144823074341e-01" nType="-99"/>
        </Node>
      </Node>
    </BinaryTree>
    <BinaryTree type="DecisionTree" boostWeight="1.0000000000000000e+00" itree="61">
      <Node pos="s" depth="0" NCoef="0" IVar="24" Cut="2.2469251632690430e+01" cType="1" res="1.9591991603374481e-01" rms="1.6294789314270020e-01" purity="2.0853385329246521e-02" nType="0">
        <Node pos="l" depth="1" NCoef="0" IVar="24" Cut="1.0693568229675293e+01" cType="1" res="1.9992162287235260e-01" rms="1.4234869182109833e-01" purity="1.4711347408592701e-02" nType="0">
          <Node pos="l" depth="2" NCoef="0" IVar="-1" Cut="0.0000000000000000e+00" cType="1" res="-3.4086294472217560e-02" rms="1.2024104595184326e-01" purity="1.0198319330811501e-02" nType="-99"/>
          <Node pos="r" depth="2" NCoef="0" IVar="-1" Cut="0.0000000000000000e+00" cType="1" res="-1.5657925978302956e-02" rms="3.1012552976608276e-01" purity="7.6887868344783783e-02" nType="-99"/>
        </Node>
        <Node pos="r" depth="1" NCoef="0" IVar="-1" Cut="0.0000000000000000e+00" cType="1" res="-8.2235587760806084e-03" rms="3.5170122981071472e-01" purity="1.2006002664566040e-01" nType="-99"/>
      </Node>
    </BinaryTree>
    <BinaryTree type="DecisionTree" boostWeight="1.0000000000000000e+00" itree="62">
      <Node pos="s" depth="0" NCoef="0" IVar="24" Cut="2.0621852874755859e+01" cType="1" res="1.9667077064514160e-01" rms="1.6157120466232300e-01" purity="9.1073093935847282e-03" nType="0">
        <Node pos="l" depth="1" NCoef="0" IVar="11" Cut="8.4565453231334686e-02" cType="1" res="2.0115943253040314e-01" rms="1.3818751275539398e-01" purity="6.9163185544312000e-03" nType="0">
          <Node pos="l" depth="2" NCoef="0" IVar="-1" Cut="0.0000000000000000e+00" cType="1" res="-2.9811836779117584e-02" rms="2.5976407527923584e-01" purity="2.4399399757385254e-02" nType="-99"/>
          <Node pos="r" depth="2" NCoef="0" IVar="-1" Cut="0.0000000000000000e+00" cType="1" res="-3.5532172769308090e-02" rms="1.2074481695890427e-01" purity="5.3339675068855286e-03" nType="-99"/>
        </Node>
        <Node pos="r" depth="1" NCoef="0" IVar="-1" Cut="0.0000000000000000e+00" cType="1" res="-2.6022939011454582e-02" rms="3.4771594405174255e-01" purity="4.0088105946779251e-02" nType="-99"/>
      </Node>
    </BinaryTree>
    <BinaryTree type="DecisionTree" boostWeight="1.0000000000000000e+00" itree="63">
      <Node pos="s" depth="0" NCoef="0" IVar="24" Cut="2.2468404769897461e+01" cType="1" res="1.8507035076618195e-01" rms="1.5989229083061218e-01" purity="9.7231441736221313e-01" nType="0">
        <Node pos="l" depth="1" NCoef="0" IVar="24" Cut="3.2085177898406982e+00" cType="1" res="1.8865182995796204e-01" rms="1.4006808400154114e-01" purity="9.7924321889877319e-01" nType="0">
          <Node pos="l" depth="2" NCoef="0" IVar="-1" Cut="0.0000000000000000e+00" cType="1" res="4.0341474115848541e-02" rms="8.7071560323238373e-02" purity="9.9224293231964111e-01" nType="-99"/>
          <Node pos="r" depth="2" NCoef="0" IVar="-1" Cut="0.0000000000000000e+00" cType="1" res="3.3827796578407288e-02" rms="2.0467323064804077e-01" purity="9.5477610826492310e-01" nType="-99"/>
        </Node>
        <Node pos="r" depth="1" NCoef="0" IVar="-1" Cut="0.0000000000000000e+00" cType="1" res="2.1502815186977386e-02" rms="3.4552216529846191e-01" purity="8.5873419046401978e-01" nType="-99"/>
      </Node>
    </BinaryTree>
    <BinaryTree type="DecisionTree" boostWeight="1.0000000000000000e+00" itree="64">
      <Node pos="s" depth="0" NCoef="0" IVar="26" Cut="3.7573542594909668e+00" cType="1" res="1.8522655963897705e-01" rms="1.6005569696426392e-01" purity="1.9562715664505959e-02" nType="0">
        <Node pos="l" depth="1" NCoef="0" IVar="25" Cut="2.4832537770271301e-01" cType="1" res="1.9166715443134308e-01" rms="1.3354153931140900e-01" purity="1.1277372017502785e-02" nType="0">
          <Node pos="l" depth="2" NCoef="0" IVar="-1" Cut="0.0000000000000000e+00" cType="1" res="-2.5621144101023674e-02" rms="2.4740324914455414e-01" purity="3.7963762879371643e-02" nType="-99"/>
          <Node pos="r" depth="2" NCoef="0" IVar="-1" Cut="0.0000000000000000e+00" cType="1" res="-3.4707330167293549e-02" rms="1.0659886896610260e-01" purity="7.3987375944852829e-03" nType="-99"/>
        </Node>
        <Node pos="r" depth="1" NCoef="0" IVar="8" Cut="2.8359664604067802e-02" cType="1" res="1.6124939918518066e-01" rms="2.3209649324417114e-01" purity="5.0407607108354568e-02" nType="0">
          <Node pos="l" depth="2" NCoef="0" IVar="-1" Cut="0.0000000000000000e+00" cType="1" res="-4.2688050307333469e-03" rms="3.2606917619705200e-01" purity="1.1114899069070816e-01" nType="-99"/>
          <Node pos="r" depth="2" NCoef="0" IVar="-1" Cut="0.0000000000000000e+00" cType="1" res="-3.4006077796220779e-02" rms="1.2673832476139069e-01" purity="1.0164896957576275e-02" nType="-99"/>
        </Node>
      </Node>
    </BinaryTree>
    <BinaryTree type="DecisionTree" boostWeight="1.0000000000000000e+00" itree="65">
      <Node pos="s" depth="0" NCoef="0" IVar="11" Cut="8.8272772729396820e-02" cType="1" res="1.8580064177513123e-01" rms="1.5800881385803223e-01" purity="7.8845536336302757e-03" nType="0">
        <Node pos="l" depth="1" NCoef="0" IVar="-1" Cut="0.0000000000000000e+00" cType="1" res="-2.9007598757743835e-02" rms="2.6736536622047424e-01" purity="2.5626091286540031e-02" nType="-99"/>
        <Node pos="r" depth="1" NCoef="0" IVar="26" Cut="4.1677298545837402e+00" cType="1" res="1.8945275247097015e-01" rms="1.4024926722049713e-01" purity="5.9152469038963318e-03" nType="0">
          <Node pos="l" depth="2" NCoef="0" IVar="-1" Cut="0.0000000000000000e+00" cType="1" res="-3.5420641303062439e-02" rms="1.1670798063278198e-01" purity="4.7142016701400280e-03" nType="-99"/>
          <Node pos="r" depth="2" NCoef="0" IVar="-1" Cut="0.0000000000000000e+00" cType="1" res="-3.2343115657567978e-02" rms="2.4861927330493927e-01" purity="1.4531043358147144e-02" nType="-99"/>
        </Node>
      </Node>
    </BinaryTree>
    <BinaryTree type="DecisionTree" boostWeight="1.0000000000000000e+00" itree="66">
      <Node pos="s" depth="0" NCoef="0" IVar="24" Cut="2.2469251632690430e+01" cType="1" res="1.7344278097152710e-01" rms="1.6035470366477966e-01" purity="9.7206848859786987e-01" nType="0">
        <Node pos="l" depth="1" NCoef="0" IVar="13" Cut="2.5714285373687744e+00" cType="1" res="1.7788915336132050e-01" rms="1.3746976852416992e-01" purity="9.8007041215896606e-01" nType="0">
          <Node pos="l" depth="2" NCoef="0" IVar="-1" Cut="0.0000000000000000e+00" cType="1" res="3.3321276307106018e-02" rms="1.9551983475685120e-01" purity="9.5880717039108276e-01" nType="-99"/>
          <Node pos="r" depth="2" NCoef="0" IVar="-1" Cut="0.0000000000000000e+00" cType="1" res="3.8896638900041580e-02" rms="1.0878742486238480e-01" purity="9.8769074678421021e-01" nType="-99"/>
        </Node>
        <Node pos="r" depth="1" NCoef="0" IVar="-1" Cut="0.0000000000000000e+00" cType="1" res="1.7707128077745438e-02" rms="3.6068746447563171e-01" purity="8.4311789274215698e-01" nType="-99"/>
      </Node>
    </BinaryTree>
    <BinaryTree type="DecisionTree" boostWeight="1.0000000000000000e+00" itree="67">
      <Node pos="s" depth="0" NCoef="0" IVar="26" Cut="4.1696486473083496e+00" cType="1" res="1.7348411679267883e-01" rms="1.6046859323978424e-01" purity="1.9434884190559387e-02" nType="0">
        <Node pos="l" depth="1" NCoef="0" IVar="25" Cut="3.0214357376098633e-01" cType="1" res="1.7889814078807831e-01" rms="1.3740575313568115e-01" purity="1.2528436258435249e-02" nType="0">
          <Node pos="l" depth="2" NCoef="0" IVar="-1" Cut="0.0000000000000000e+00" cType="1" res="-2.6287417858839035e-02" rms="2.2560000419616699e-01" purity="3.2767601311206818e-02" nType="-99"/>
          <Node pos="r" depth="2" NCoef="0" IVar="-1" Cut="0.0000000000000000e+00" cType="1" res="-3.4233029931783676e-02" rms="1.0445626080036163e-01" purity="7.5881872326135635e-03" nType="-99"/>
        </Node>
        <Node pos="r" depth="1" NCoef="0" IVar="8" Cut="2.8394052758812904e-02" cType="1" res="1.3480938971042633e-01" rms="2.7040562033653259e-01" purity="6.8770609796047211e-02" nType="0">
          <Node pos="l" depth="2" NCoef="0" IVar="-1" Cut="0.0000000000000000e+00" cType="1" res="-3.6526066651276778e-06" rms="3.4958121180534363e-01" purity="1.2646609544754028e-01" nType="-99"/>
          <Node pos="r" depth="2" NCoef="0" IVar="-1" Cut="0.0000000000000000e+00" cType="1" res="-3.0667120590806007e-02" rms="1.6424036026000977e-01" purity="1.9256018102169037e-02" nType="-99"/>
        </Node>
      </Node>
    </BinaryTree>
    <BinaryTree type="DecisionTree" boostWeight="1.0000000000000000e+00" itree="68">
      <Node pos="s" depth="0" NCoef="0" IVar="11" Cut="8.7086983025074005e-02" cType="1" res="1.7210416495800018e-01" rms="1.6475264728069305e-01" purity="7.8517217189073563e-03" nType="0">
        <Node pos="l" depth="1" NCoef="0" IVar="-1" Cut="0.0000000000000000e+00" cType="1" res="-2.7874328196048737e-02" rms="2.8235259652137756e-01" purity="2.7194797992706299e-02" nType="-99"/>
        <Node pos="r" depth="1" NCoef="0" IVar="26" Cut="4.0073056221008301e+00" cType="1" res="1.7644102871417999e-01" rms="1.4557522535324097e-01" purity="5.7324222289025784e-03" nType="0">
          <Node pos="l" depth="2" NCoef="0" IVar="-1" Cut="0.0000000000000000e+00" cType="1" res="-3.5140909254550934e-02" rms="1.2067204713821411e-01" purity="4.5925984159111977e-03" nType="-99"/>
          <Node pos="r" depth="2" NCoef="0" IVar="-1" Cut="0.0000000000000000e+00" cType="1" res="-3.2704785466194153e-02" rms="2.3828436434268951e-01" purity="1.2005054391920567e-02" nType="-99"/>
        </Node>
      </Node>
    </BinaryTree>
    <BinaryTree type="DecisionTree" boostWeight="1.0000000000000000e+00" itree="69">
      <Node pos="s" depth="0" NCoef="0" IVar="8" Cut="4.5455303043127060e-02" cType="1" res="1.6366885602474213e-01" rms="1.5766336023807526e-01" purity="9.7302228212356567e-01" nType="0">
        <Node pos="l" depth="1" NCoef="0" IVar="8" Cut="8.7082739919424057e-03" cType="1" res="1.4635093510150909e-01" rms="2.1387128531932831e-01" purity="9.4915699958801270e-01" nType="0">
          <Node pos="l" depth="2" NCoef="0" IVar="-1" Cut="0.0000000000000000e+00" cType="1" res="9.1248061507940292e-03" rms="3.6423611640930176e-01" purity="8.3416807651519775e-01" nType="-99"/>
          <Node pos="r" depth="2" NCoef="0" IVar="-1" Cut="0.0000000000000000e+00" cType="1" res="3.3994030207395554e-02" rms="1.8049988150596619e-01" purity="9.6452474594116211e-01" nType="-99"/>
        </Node>
        <Node pos="r" depth="1" NCoef="0" IVar="25" Cut="2.7654215693473816e-01" cType="1" res="1.7734359204769135e-01" rms="8.9128777384757996e-02" purity="9.9186694622039795e-01" nType="0">
          <Node pos="l" depth="2" NCoef="0" IVar="-1" Cut="0.0000000000000000e+00" cType="1" res="3.4323591738939285e-02" rms="1.8122202157974243e-01" purity="9.6494156122207642e-01" nType="-99"/>
          <Node pos="r" depth="2" NCoef="0" IVar="-1" Cut="0.0000000000000000e+00" cType="1" res="3.9710275828838348e-02" rms="7.3257930576801300e-02" purity="9.9463069438934326e-01" nType="-99"/>
        </Node>
      </Node>
    </BinaryTree>
    <BinaryTree type="DecisionTree" boostWeight="1.0000000000000000e+00" itree="70">
      <Node pos="s" depth="0" NCoef="0" IVar="24" Cut="2.2468404769897461e+01" cType="1" res="1.6269387304782867e-01" rms="1.6095110774040222e-01" purity="1.9316364079713821e-02" nType="0">
        <Node pos="l" depth="1" NCoef="0" IVar="24" Cut="8.5560474395751953e+00" cType="1" res="1.6658186912536621e-01" rms="1.3899517059326172e-01" purity="1.3456529937684536e-02" nType="0">
          <Node pos="l" depth="2" NCoef="0" IVar="-1" Cut="0.0000000000000000e+00" cType="1" res="-3.3279757946729660e-02" rms="1.1532194912433624e-01" purity="8.9692287147045135e-03" nType="-99"/>
          <Node pos="r" depth="2" NCoef="0" IVar="-1" Cut="0.0000000000000000e+00" cType="1" res="-1.9580792635679245e-02" rms="2.6725512742996216e-01" purity="5.3308822214603424e-02" nType="-99"/>
        </Node>
        <Node pos="r" depth="1" NCoef="0" IVar="-1" Cut="0.0000000000000000e+00" cType="1" res="-8.2925632596015930e-03" rms="3.4961897134780884e-01" purity="1.0833726078271866e-01" nType="-99"/>
      </Node>
    </BinaryTree>
    <BinaryTree type="DecisionTree" boostWeight="1.0000000000000000e+00" itree="71">
      <Node pos="s" depth="0" NCoef="0" IVar="27" Cut="4.6190476417541504e+00" cType="1" res="1.6248038411140442e-01" rms="1.6152666509151459e-01" purity="8.0948416143655777e-03" nType="0">
        <Node pos="l" depth="1" NCoef="0" IVar="11" Cut="1.8945819139480591e-01" cType="1" res="1.2471169978380203e-01" rms="2.5161397457122803e-01" purity="1.5370063483715057e-02" nType="0">
          <Node pos="l" depth="2" NCoef="0" IVar="-1" Cut="0.0000000000000000e+00" cType="1" res="-2.7980210259556770e-02" rms="2.9353970289230347e-01" purity="2.3758098483085632e-02" nType="-99"/>
          <Node pos="r" depth="2" NCoef="0" IVar="-1" Cut="0.0000000000000000e+00" cType="1" res="-3.4649234265089035e-02" rms="1.8514429032802582e-01" purity="5.2246605046093464e-03" nType="-99"/>
        </Node>
        <Node pos="r" depth="1" NCoef="0" IVar="8" Cut="5.9673059731721878e-02" cType="1" res="1.6769875586032867e-01" rms="1.4395888149738312e-01" purity="7.0896497927606106e-03" nType="0">
          <Node pos="l" depth="2" NCoef="0" IVar="-1" Cut="0.0000000000000000e+00" cType="1" res="-3.3012077212333679e-02" rms="1.7740286886692047e-01" purity="9.6499640494585037e-03" nType="-99"/>
